{"learner":{"attributes":{"scikit_learn":"{\"_estimator_type\": \"regressor\"}"},"feature_names":[],"feature_types":[],"gradient_booster":{"model":{"gbtree_model_param":{"num_parallel_tree":"1","num_trees":"100"},"iteration_indptr":[0,1,2,3,4,5,6,7,8,9,10,11,12,13,14,15,16,17,18,19,20,21,22,23,24,25,26,27,28,29,30,31,32,33,34,35,36,37,38,39,40,41,42,43,44,45,46,47,48,49,50,51,52,53,54,55,56,57,58,59,60,61,62,63,64,65,66,67,68,69,70,71,72,73,74,75,76,77,78,79,80,81,82,83,84,85,86,87,88,89,90,91,92,93,94,95,96,97,98,99,100],"tree_info":[0,0,0,0,0,0,0,0,0,0,0,0,0,0,0,0,0,0,0,0,0,0,0,0,0,0,0,0,0,0,0,0,0,0,0,0,0,0,0,0,0,0,0,0,0,0,0,0,0,0,0,0,0,0,0,0,0,0,0,0,0,0,0,0,0,0,0,0,0,0,0,0,0,0,0,0,0,0,0,0,0,0,0,0,0,0,0,0,0,0,0,0,0,0,0,0,0,0,0,0],"trees":[{"base_weights":[5.2905983E-7,-4.367714E0,9.935271E0,-6.2246966E0,1.7295962E-2,6.895969E0,1.7050842E1,-8.587101E0,-5.562608E0,-2.1282833E0,1.6590554E0,4.293591E0,8.737285E0,1.5774217E1,6.6546745E0,-3.1941416E0,-2.2960424E0,-6.0911703E0,-4.5471087E0,-2.5134087E0,-7.1096087E-1,8.873883E-1,1.8907748E0,1.0255481E0,4.825958E0,2.3608036E0,3.0835423E0,3.9677513E0,5.044264E0,-1.9806055E0,-1.6935834E0,-1.4593923E0,-1.1743175E0,-2.1275754E-1,-7.5642043E-1,-3.5663345E-1,-5.493055E-1,1.9591267E-1,1.0009179E0,1.9170681E0,-2.6449332E-1,1.3343108E0,1.7069895E0,-1.7482232E-1,-1.2898064E-2,-1.3742495E-2,9.7322375E-2,1.9260134E-1,3.3168927E-1,5.374528E-1,7.523354E-1,-8.99334E-3,-1.10028654E-1],"categories":[],"categories_nodes":[],"categories_segments":[],"categories_sizes":[],"default_left":[0,0,0,0,0,0,0,0,0,0,0,0,0,0,0,0,0,0,0,0,0,0,0,0,0,0,0,0,0,0,0,0,0,0,0,0,0,0,0,0,0,0,0,0,0,0,0,0,0,0,0,0,0],"id":0,"left_children":[1,3,5,7,9,11,13,15,17,19,21,23,25,27,-1,-1,-1,29,31,33,35,37,39,-1,41,-1,-1,-1,-1,-1,-1,-1,-1,-1,-1,-1,43,45,47,49,51,-1,-1,-1,-1,-1,-1,-1,-1,-1,-1,-1,-1],"loss_changes":[8.48361E4,1.1058148E4,1.2793355E4,1.4444062E3,1.4301534E3,1.975041E3,8.1615234E2,3.166377E2,3.7379297E2,9.4282104E1,3.9448547E1,6.549609E1,2.4684375E2,1.645625E2,0E0,0E0,0E0,7.4115234E1,3.3194336E1,2.019043E-1,2.3594246E0,4.1215706E0,1.0480835E1,0E0,9.661865E0,0E0,0E0,0E0,0E0,0E0,0E0,0E0,0E0,0E0,0E0,0E0,4.9973965E-1,2.944005E-1,1.0565758E0,8.412781E0,6.0956195E-2,0E0,0E0,0E0,0E0,0E0,0E0,0E0,0E0,0E0,0E0,0E0,0E0],"parents":[2147483647,0,0,1,1,2,2,3,3,4,4,5,5,6,6,7,7,8,8,9,9,10,10,11,11,12,12,13,13,17,17,18,18,19,19,20,20,21,21,22,22,24,24,36,36,37,37,38,38,39,39,40,40],"right_children":[2,4,6,8,10,12,14,16,18,20,22,24,26,28,-1,-1,-1,30,32,34,36,38,40,-1,42,-1,-1,-1,-1,-1,-1,-1,-1,-1,-1,-1,44,46,48,50,52,-1,-1,-1,-1,-1,-1,-1,-1,-1,-1,-1,-1],"split_conditions":[1.906355E1,1.3125382E1,2.9100079E1,9.4022255E0,1.654555E1,2.2911745E1,3.4375404E1,7.1690946E0,1.132829E1,1.4763546E1,1.770429E1,2.0298723E1,2.5291624E1,3.139427E1,6.6546745E0,-3.1941416E0,-2.2960424E0,1.0469636E1,1.2195242E1,1.0501304E1,1.5249454E1,1.6877258E1,1.9815102E1,1.0255481E0,2.0959272E1,2.3608036E0,3.0835423E0,3.9677513E0,5.044264E0,-1.9806055E0,-1.6935834E0,-1.4593923E0,-1.1743175E0,-2.1275754E-1,-7.5642043E-1,-3.5663345E-1,1.6667048E1,1.6761042E1,1.7136549E1,1.8646301E1,1.859089E1,1.3343108E0,1.7069895E0,-1.7482232E-1,-1.2898064E-2,-1.3742495E-2,9.7322375E-2,1.9260134E-1,3.3168927E-1,5.374528E-1,7.523354E-1,-8.99334E-3,-1.10028654E-1],"split_indices":[3,3,3,3,3,3,3,3,3,3,3,3,3,3,0,0,0,3,3,2,3,3,0,0,2,0,0,0,0,0,0,0,0,0,0,0,1,0,1,2,1,0,0,0,0,0,0,0,0,0,0,0,0],"split_type":[0,0,0,0,0,0,0,0,0,0,0,0,0,0,0,0,0,0,0,0,0,0,0,0,0,0,0,0,0,0,0,0,0,0,0,0,0,0,0,0,0,0,0,0,0,0,0,0,0,0,0,0,0],"sum_hessian":[1.953E3,1.357E3,5.96E2,9.53E2,4.04E2,4.19E2,1.77E2,2.06E2,7.47E2,1.75E2,2.29E2,1.75E2,2.44E2,1.45E2,3.2E1,6.1E1,1.45E2,4.88E2,2.59E2,1.37E2,3.8E1,5.4E1,1.75E2,6.9E1,1.06E2,1.6E2,8.4E1,4.6E1,9.9E1,2.21E2,2.67E2,1.68E2,9.1E1,1E0,1.36E2,8E0,3E1,8E0,4.6E1,1.73E2,2E0,7.8E1,2.8E1,2.8E1,2E0,3E0,5E0,1.2E1,3.4E1,1.46E2,2.7E1,1E0,1E0],"tree_param":{"num_deleted":"0","num_feature":"4","num_nodes":"53","size_leaf_vector":"1"}},{"base_weights":[6.9834446E-3,-3.0658925E0,6.9968634E0,-4.3696547E0,1.27616525E-2,4.710654E0,1.1758098E1,-6.225412E0,-3.9418414E0,-1.4983982E0,1.169072E0,2.8920164E0,5.911177E0,1.0031268E1,4.2369003E0,-2.307222E0,-1.6558713E0,-4.4640565E0,-3.365801E0,-1.7672906E0,-5.085125E-1,7.103789E-1,1.3612424E0,6.898018E-1,3.1890283E0,1.4961289E0,1.9472891E0,2.6749241E0,3.2429807E0,-1.4155297E0,-1.2398657E0,-1.0934508E0,-2.8621988E0,-5.8284396E-1,-4.8090267E-1,-2.5747752E-1,-3.9056978E-1,3.6070934E-1,8.738191E-1,1.4189181E0,5.954797E-1,9.6166575E-1,2.181018E-1,-8.9849937E-1,-6.8528706E-1,-1.6418897E-1,-7.883382E-2,4.392764E-2,1.3760991E-1,3.9925948E-1,2.363165E-1,3.7161642E-1,5.193699E-1,-2.1561386E-1,5.4738116E-1],"categories":[],"categories_nodes":[],"categories_segments":[],"categories_sizes":[],"default_left":[0,0,0,0,0,0,0,0,0,0,0,0,0,0,0,0,0,0,0,0,0,0,0,0,0,0,0,0,0,0,0,0,0,0,0,0,0,0,0,0,0,0,0,0,0,0,0,0,0,0,0,0,0,0,0],"id":1,"left_children":[1,3,5,7,9,11,13,15,17,19,21,23,25,27,-1,-1,-1,29,31,33,35,37,39,-1,41,-1,-1,-1,-1,-1,-1,-1,43,-1,-1,-1,45,47,49,51,53,-1,-1,-1,-1,-1,-1,-1,-1,-1,-1,-1,-1,-1,-1],"loss_changes":[4.1991484E4,5.450841E3,6.4430645E3,7.3285547E2,7.094365E2,8.6714844E2,6.465E2,1.4061963E2,2.1901074E2,4.5947662E1,1.9306885E1,2.1360596E1,9.782031E1,3.4453125E0,0E0,0E0,0E0,1.46171875E1,4.212256E1,8.648987E-1,1.2735386E0,3.6853065E0,6.265747E0,0E0,1.9819336E0,0E0,0E0,0E0,0E0,0E0,0E0,0E0,3.7495117E0,0E0,0E0,0E0,4.7705507E-1,4.3678117E-1,8.011284E-1,6.240906E0,2.2310337E1,0E0,0E0,0E0,0E0,0E0,0E0,0E0,0E0,0E0,0E0,0E0,0E0,0E0,0E0],"parents":[2147483647,0,0,1,1,2,2,3,3,4,4,5,5,6,6,7,7,8,8,9,9,10,10,11,11,12,12,13,13,17,17,18,18,19,19,20,20,21,21,22,22,24,24,32,32,36,36,37,37,38,38,39,39,40,40],"right_children":[2,4,6,8,10,12,14,16,18,20,22,24,26,28,-1,-1,-1,30,32,34,36,38,40,-1,42,-1,-1,-1,-1,-1,-1,-1,44,-1,-1,-1,46,48,50,52,54,-1,-1,-1,-1,-1,-1,-1,-1,-1,-1,-1,-1,-1,-1],"split_conditions":[1.906355E1,1.3125382E1,2.740153E1,9.284438E0,1.654555E1,2.1925837E1,3.322591E1,6.913496E0,1.1020992E1,1.4997469E1,1.7956186E1,1.9664597E1,2.4003824E1,3.0604933E1,4.2369003E0,-2.307222E0,-1.6558713E0,1.0222828E1,1.1964546E1,1.3905957E1,1.5249454E1,1.7459862E1,1.973359E1,6.898018E-1,2.385173E1,1.4961289E0,1.9472891E0,2.6749241E0,3.2429807E0,-1.4155297E0,-1.2398657E0,-1.0934508E0,1.2192557E1,-5.8284396E-1,-4.8090267E-1,-2.5747752E-1,1.5299436E1,1.6877258E1,1.7391674E1,1.8377401E1,1.8738413E1,9.6166575E-1,2.181018E-1,-8.9849937E-1,-6.8528706E-1,-1.6418897E-1,-7.883382E-2,4.392764E-2,1.3760991E-1,3.9925948E-1,2.363165E-1,3.7161642E-1,5.193699E-1,-2.1561386E-1,5.4738116E-1],"split_indices":[3,3,3,3,3,2,2,3,3,2,3,2,3,3,0,0,0,3,3,3,3,3,0,0,0,0,0,0,0,0,0,0,0,0,0,0,0,3,0,3,2,0,0,0,0,0,0,0,0,0,0,0,0,0,0],"split_type":[0,0,0,0,0,0,0,0,0,0,0,0,0,0,0,0,0,0,0,0,0,0,0,0,0,0,0,0,0,0,0,0,0,0,0,0,0,0,0,0,0,0,0,0,0,0,0,0,0,0,0,0,0,0,0],"sum_hessian":[1.953E3,1.357E3,5.96E2,9.53E2,4.04E2,4.04E2,1.92E2,1.76E2,7.77E2,1.75E2,2.29E2,1.62E2,2.42E2,1.14E2,7.8E1,5.4E1,1.22E2,4.04E2,3.73E2,1.37E2,3.8E1,6.9E1,1.6E2,5.7E1,1.05E2,9.7E1,1.45E2,5.2E1,6.2E1,2.21E2,1.83E2,2.36E2,1.37E2,6.1E1,7.6E1,8E0,3E1,2.3E1,4.6E1,1.48E2,1.2E1,1.04E2,1E0,1.08E2,2.9E1,1.2E1,1.8E1,8E0,1.5E1,5E0,4.1E1,9.7E1,5.1E1,6E0,6E0],"tree_param":{"num_deleted":"0","num_feature":"4","num_nodes":"55","size_leaf_vector":"1"}},{"base_weights":[8.290547E-3,-2.1147447E0,5.016742E0,-3.0324206E0,1.4894336E-1,3.2881286E0,8.109115E0,-4.1653867E0,-2.6639361E0,-9.859017E-1,8.5703456E-1,2.226291E0,4.139155E0,6.8516984E0,1.0075635E1,-1.9159397E0,-3.8980787E0,-2.9321856E0,-2.0563734E0,-1.1894375E0,-3.604523E-1,4.592028E-1,9.951673E-1,1.9304832E0,8.1169826E-1,1.1438973E0,1.4208666E0,1.7268709E0,2.1724813E0,8.755265E0,1.1650839E1,-1.360447E0,-1.0969037E0,-9.457974E-1,-8.12166E-1,-6.64791E-1,-1.6599249E0,-1.203174E0,-1.5223776E-1,-4.6150672E-1,-1.8634236E-1,2.4033682E-1,5.511358E-1,8.7135965E-1,1.1747094E0,1.2636653E0,1.9930743E0,2.686542E0,8.516138E-1,1.0244164E0,3.5404522E0,-1.2714286E-1,-5.0150925E-1,-1.4064732E-1,-3.636791E-1,-1.7797528E-1,-1.0756694E-1,-8.387365E-2,2.2408105E-2,9.295117E-2,-3.9749768E-2,1.7154951E-1,2.1234512E-2,1.1710849E-1,2.7453548E-1,3.9286828E-1,1.7518793E-1,4.1793868E-1,1.969368E-1,5.7888955E-1,8.957121E-1],"categories":[],"categories_nodes":[],"categories_segments":[],"categories_sizes":[],"default_left":[0,0,0,0,0,0,0,0,0,0,0,0,0,0,0,0,0,0,0,0,0,0,0,0,0,0,0,0,0,0,0,0,0,0,0,0,0,0,0,0,0,0,0,0,0,0,0,0,0,0,0,0,0,0,0,0,0,0,0,0,0,0,0,0,0,0,0,0,0,0,0],"id":2,"left_children":[1,3,5,7,9,11,13,15,17,19,21,23,25,27,29,-1,31,33,35,37,39,41,43,45,-1,-1,-1,-1,-1,47,49,-1,-1,-1,-1,-1,51,53,-1,55,57,59,61,63,65,67,69,-1,-1,-1,-1,-1,-1,-1,-1,-1,-1,-1,-1,-1,-1,-1,-1,-1,-1,-1,-1,-1,-1,-1,-1],"loss_changes":[2.0787725E4,2.852628E3,3.0844268E3,3.9678223E2,3.1986374E2,3.296548E2,4.4529395E2,1.1640869E2,1.1457471E2,1.904837E1,1.3006653E1,1.874115E1,2.2251953E1,1.3841797E1,6.2302734E1,0E0,1.6512207E1,1.6810059E1,1.0874207E1,4.6676636E-1,6.0019016E-1,1.1754065E0,2.9998016E0,1.9889832E0,0E0,0E0,0E0,0E0,0E0,3.0159668E1,6.5185547E-1,0E0,0E0,0E0,0E0,0E0,3.1015015E-1,1.7927551E-1,0E0,1.128006E-1,4.1029215E-1,5.8521044E-1,4.068861E-1,1.979065E0,4.8913803E0,2.8808594E-2,3.4732056E-1,0E0,0E0,0E0,0E0,0E0,0E0,0E0,0E0,0E0,0E0,0E0,0E0,0E0,0E0,0E0,0E0,0E0,0E0,0E0,0E0,0E0,0E0,0E0,0E0],"parents":[2147483647,0,0,1,1,2,2,3,3,4,4,5,5,6,6,7,7,8,8,9,9,10,10,11,11,12,12,13,13,14,14,16,16,17,17,18,18,19,19,20,20,21,21,22,22,23,23,29,29,30,30,36,36,37,37,39,39,40,40,41,41,42,42,43,43,44,44,45,45,46,46],"right_children":[2,4,6,8,10,12,14,16,18,20,22,24,26,28,30,-1,32,34,36,38,40,42,44,46,-1,-1,-1,-1,-1,48,50,-1,-1,-1,-1,-1,52,54,-1,56,58,60,62,64,66,68,70,-1,-1,-1,-1,-1,-1,-1,-1,-1,-1,-1,-1,-1,-1,-1,-1,-1,-1,-1,-1,-1,-1,-1,-1],"split_conditions":[1.930926E1,1.3782772E1,2.676774E1,9.701397E0,1.654555E1,2.3137682E1,3.362407E1,6.110048E0,1.1481965E1,1.4763546E1,1.7799206E1,2.0727158E1,2.4495556E1,2.9331585E1,3.4375404E1,-1.9159397E0,8.503737E0,1.0676015E1,1.2456829E1,1.4481401E1,1.5992576E1,1.7459862E1,1.836129E1,1.8888872E1,8.1169826E-1,1.1438973E0,1.4208666E0,1.7268709E0,2.1724813E0,3.501856E1,3.335262E1,-1.360447E0,-1.0969037E0,-9.457974E-1,-8.12166E-1,-6.64791E-1,1.0264964E1,1.1907287E1,-1.5223776E-1,1.5249454E1,1.5780246E1,1.757716E1,1.921711E1,1.7548603E1,1.973359E1,1.9812933E1,2.116719E1,2.686542E0,8.516138E-1,1.0244164E0,3.5404522E0,-1.2714286E-1,-5.0150925E-1,-1.4064732E-1,-3.636791E-1,-1.7797528E-1,-1.0756694E-1,-8.387365E-2,2.2408105E-2,9.295117E-2,-3.9749768E-2,1.7154951E-1,2.1234512E-2,1.1710849E-1,2.7453548E-1,3.9286828E-1,1.7518793E-1,4.1793868E-1,1.969368E-1,5.7888955E-1,8.957121E-1],"split_indices":[3,3,3,3,3,3,3,3,3,3,2,3,0,3,3,0,3,3,3,0,3,3,0,2,0,0,0,0,0,2,0,0,0,0,0,0,0,1,0,3,0,2,0,1,0,1,0,0,0,0,0,0,0,0,0,0,0,0,0,0,0,0,0,0,0,0,0,0,0,0,0],"split_type":[0,0,0,0,0,0,0,0,0,0,0,0,0,0,0,0,0,0,0,0,0,0,0,0,0,0,0,0,0,0,0,0,0,0,0,0,0,0,0,0,0,0,0,0,0,0,0,0,0,0,0,0,0,0,0,0,0,0,0,0,0,0,0,0,0,0,0,0,0,0,0],"sum_hessian":[1.953E3,1.372E3,5.81E2,9.76E2,3.96E2,3.74E2,2.07E2,2.37E2,7.39E2,1.52E2,2.44E2,1.68E2,2.06E2,1.29E2,7.8E1,2.3E1,2.14E2,5.1E2,2.29E2,1.14E2,3.8E1,6.4E1,1.8E2,1.07E2,6.1E1,1.38E2,6.8E1,3.8E1,9.1E1,4.6E1,3.2E1,5.4E1,1.6E2,2.51E2,2.59E2,1.6E2,6.9E1,1.11E2,3E0,2.3E1,1.5E1,2E1,4.4E1,1.1E2,7E1,1.1E1,9.6E1,4.4E1,2E0,1E0,3.1E1,1E0,6.8E1,2E0,1.09E2,8E0,1.5E1,1.1E1,4E0,1.7E1,3E0,4.2E1,2E0,1E1,1E2,5.6E1,1.4E1,8E0,3E0,9.3E1,3E0],"tree_param":{"num_deleted":"0","num_feature":"4","num_nodes":"71","size_leaf_vector":"1"}},{"base_weights":[1.1046726E-2,-1.4855816E0,3.5417335E0,-2.148042E0,6.483668E-2,2.3162653E0,5.7340837E0,-3.36283E0,-1.9676051E0,-7.2306174E-1,6.048452E-1,1.4766557E0,2.8511162E0,4.7469983E0,7.07917E0,-1.4766107E0,-9.2510325E-1,-2.2069273E0,-1.5737884E0,-8.739122E-1,-3.0398205E-1,3.2522684E-1,7.01919E-1,1.2731419E0,1.746042E0,2.543211E0,3.270729E0,4.249358E0,1.5799522E0,6.45028E0,9.427422E0,-7.125145E-1,-2.0172875E0,-1.663089E0,-1.247629E0,-1.22721724E-1,-8.8212425E-1,-1.4458644E-1,-2.0231926E-1,2.9483238E-1,2.5653058E-1,6.644784E-1,1.2201393E0,9.734083E-1,1.3469839E0,1.7736092E0,1.3801862E-2,2.3904054E0,9.570062E-1,4.683236E-1,9.9311167E-1,1.2849944E0,2.9614508E-1,6.122643E-1,1.9645534E0,1.0475674E0,3.0077803E0,-6.067424E-1,-1.08071424E-1,-5.4440343E-1,-4.6733785E-1,-3.7853977E-1,-1.4891826E-1,-3.0710015E-1,-2.4773045E-1,-1.2247392E-1,-4.4104837E-2,9.761995E-2,-2.4005242E-1,2.1023348E-1,-2.0424935E-1,2.032971E-1,4.299963E-1,3.0055326E-1,6.070376E-2,2.260704E-1,4.1463575E-1,4.804516E-1,6.985698E-1,1.6563006E-1,7.2053635E-1],"categories":[],"categories_nodes":[],"categories_segments":[],"categories_sizes":[],"default_left":[0,0,0,0,0,0,0,0,0,0,0,0,0,0,0,0,0,0,0,0,0,0,0,0,0,0,0,0,0,0,0,0,0,0,0,0,0,0,0,0,0,0,0,0,0,0,0,0,0,0,0,0,0,0,0,0,0,0,0,0,0,0,0,0,0,0,0,0,0,0,0,0,0,0,0,0,0,0,0,0,0],"id":3,"left_children":[1,3,5,7,9,11,13,15,17,19,21,23,25,27,29,-1,-1,31,33,35,37,39,41,43,45,47,49,51,-1,53,55,-1,57,59,61,-1,63,-1,65,67,-1,69,71,73,75,77,-1,79,-1,-1,-1,-1,-1,-1,-1,-1,-1,-1,-1,-1,-1,-1,-1,-1,-1,-1,-1,-1,-1,-1,-1,-1,-1,-1,-1,-1,-1,-1,-1,-1,-1],"loss_changes":[1.0330444E4,1.4103345E3,1.5503516E3,2.042461E2,1.7573177E2,1.641897E2,2.4256006E2,3.8358643E1,7.5696045E1,1.0355034E1,6.421898E0,5.8909607E0,2.1139648E1,9.419678E0,6.6194824E1,0E0,0E0,1.1787598E1,7.274658E0,1.0866547E-1,7.347789E-1,7.9473114E-1,2.7010956E0,6.365509E-1,2.777176E0,5.816284E0,1.135437E0,3.3041992E0,0E0,1.738794E1,2.1830322E1,0E0,1.4289551E0,1.147583E0,1.5074158E-1,0E0,1.1190796E-1,0E0,2.9302216E-1,2.3690858E0,0E0,8.827812E0,3.008213E-1,2.5772476E-1,3.7625885E-1,2.0013885E0,0E0,1.0593262E0,0E0,0E0,0E0,0E0,0E0,0E0,0E0,0E0,0E0,0E0,0E0,0E0,0E0,0E0,0E0,0E0,0E0,0E0,0E0,0E0,0E0,0E0,0E0,0E0,0E0,0E0,0E0,0E0,0E0,0E0,0E0,0E0,0E0],"parents":[2147483647,0,0,1,1,2,2,3,3,4,4,5,5,6,6,7,7,8,8,9,9,10,10,11,11,12,12,13,13,14,14,17,17,18,18,19,19,20,20,21,21,22,22,23,23,24,24,25,25,26,26,27,27,29,29,30,30,32,32,33,33,34,34,36,36,38,38,39,39,41,41,42,42,43,43,44,44,45,45,47,47],"right_children":[2,4,6,8,10,12,14,16,18,20,22,24,26,28,30,-1,-1,32,34,36,38,40,42,44,46,48,50,52,-1,54,56,-1,58,60,62,-1,64,-1,66,68,-1,70,72,74,76,78,-1,80,-1,-1,-1,-1,-1,-1,-1,-1,-1,-1,-1,-1,-1,-1,-1,-1,-1,-1,-1,-1,-1,-1,-1,-1,-1,-1,-1,-1,-1,-1,-1,-1,-1],"split_conditions":[1.930926E1,1.3170508E1,2.676774E1,8.8655615E0,1.654555E1,2.1925837E1,3.3507294E1,5.000037E0,1.0975703E1,1.4139583E1,1.7799206E1,2.0537241E1,2.4245136E1,3.1439129E1,3.5714584E1,-1.4766107E0,-9.2510325E-1,1.0015835E1,1.2289428E1,1.2300356E1,1.5249454E1,1.8666555E1,1.9232573E1,1.9318825E1,2.385173E1,2.3976706E1,2.3698174E1,3.2208477E1,1.5799522E0,3.1210283E1,3.111373E1,-7.125145E-1,1.3125382E1,1.1068491E1,1.3782772E1,-1.22721724E-1,1.3644249E1,-1.4458644E-1,1.5142229E1,1.8489576E1,2.5653058E-1,1.9768131E1,1.9304714E1,2.0917984E1,1.8792675E1,2.116719E1,1.3801862E-2,2.1389725E1,9.570062E-1,4.683236E-1,9.9311167E-1,1.2849944E0,2.9614508E-1,6.122643E-1,1.9645534E0,1.0475674E0,3.0077803E0,-6.067424E-1,-1.08071424E-1,-5.4440343E-1,-4.6733785E-1,-3.7853977E-1,-1.4891826E-1,-3.0710015E-1,-2.4773045E-1,-1.2247392E-1,-4.4104837E-2,9.761995E-2,-2.4005242E-1,2.1023348E-1,-2.0424935E-1,2.032971E-1,4.299963E-1,3.0055326E-1,6.070376E-2,2.260704E-1,4.1463575E-1,4.804516E-1,6.985698E-1,1.6563006E-1,7.2053635E-1],"split_indices":[3,0,3,3,3,2,3,3,2,3,2,2,3,0,2,0,0,2,3,2,3,3,2,1,0,2,0,1,0,2,1,0,3,0,3,0,2,0,0,3,0,0,0,0,2,0,0,3,0,0,0,0,0,0,0,0,0,0,0,0,0,0,0,0,0,0,0,0,0,0,0,0,0,0,0,0,0,0,0,0,0],"split_type":[0,0,0,0,0,0,0,0,0,0,0,0,0,0,0,0,0,0,0,0,0,0,0,0,0,0,0,0,0,0,0,0,0,0,0,0,0,0,0,0,0,0,0,0,0,0,0,0,0,0,0,0,0,0,0,0,0,0,0,0,0,0,0,0,0,0,0,0,0,0,0,0,0,0,0,0,0,0,0,0,0],"sum_hessian":[1.953E3,1.372E3,5.81E2,9.61E2,4.11E2,3.74E2,2.07E2,1.22E2,8.39E2,1.67E2,2.44E2,1.47E2,2.27E2,1.22E2,8.5E1,1.6E1,1.06E2,5.19E2,3.2E2,1.22E2,4.5E1,6.4E1,1.8E2,8.7E1,6E1,1.35E2,9.2E1,6.7E1,5.5E1,7E1,1.5E1,2.69E2,2.5E2,2.48E2,7.2E1,3E0,1.19E2,1.5E1,3E1,6.2E1,2E0,1.7E2,1E1,2E1,6.7E1,5.9E1,1E0,1.13E2,2.2E1,3E0,8.9E1,6.6E1,1E0,2E0,6.8E1,2E0,1.3E1,2.49E2,1E0,9.5E1,1.53E2,7E1,2E0,2.9E1,9E1,5E0,2.5E1,6.1E1,1E0,1.66E2,4E0,4E0,6E0,1.9E1,1E0,5E0,6.2E1,4.8E1,1.1E1,1E0,1.12E2],"tree_param":{"num_deleted":"0","num_feature":"4","num_nodes":"81","size_leaf_vector":"1"}},{"base_weights":[1.2691185E-2,-1.1131929E0,2.3530917E0,-1.5217233E0,-7.57824E-2,1.4393407E0,3.9449358E0,-2.3618042E0,-1.3851599E0,-5.6878906E-1,3.2470503E-1,9.126636E-1,1.8780798E0,3.2772744E0,5.0325365E0,-1.0123104E0,-6.379429E-1,-1.5528824E0,-1.1440853E0,-6.2490714E-1,-2.6588067E-1,3.4303996E-1,-1.0364164E0,7.2758436E-1,1.1105065E0,1.5248115E0,6.1400694E-1,2.972033E0,3.7147686E0,4.641719E0,2.3581357E0,-5.0700885E-1,-1.4422963E0,-1.2555143E0,-1.0218021E0,-2.1119659E-1,-5.692786E-1,-3.2484326E-1,-2.0135605E-1,3.0794072E-1,1.4558417E0,-4.0956432E-1,-5.6823064E-2,1.0376996E0,6.598531E-1,1.5502925E0,1.0533609E0,1.5569218E0,7.055703E-2,8.9592284E-1,2.517234E-1,3.8605185E0,2.3577042E0,4.8981133E-1,1.4098262E0,-4.340486E-1,-1.6608611E-1,-4.732702E-1,-3.658463E-1,-3.2071987E-1,-2.55143E-1,-1.4675047E-1,-1.9148149E-1,-1.1310769E-1,-3.3952978E-2,-1.2289811E-2,-7.5421676E-2,4.571548E-3,1.1295156E-1,-1.5758514E-2,5.304064E-1,1.01212986E-1,3.520082E-1,4.033599E-2,2.1633253E-1,1.3070098E-1,4.9418572E-1,1.9142533E-2,3.1947982E-1,2.8635103E-1,4.849143E-1,7.611322E-1,1.2170594E0,3.237484E-1,1.2386667E0],"categories":[],"categories_nodes":[],"categories_segments":[],"categories_sizes":[],"default_left":[0,0,0,0,0,0,0,0,0,0,0,0,0,0,0,0,0,0,0,0,0,0,0,0,0,0,0,0,0,0,0,0,0,0,0,0,0,0,0,0,0,0,0,0,0,0,0,0,0,0,0,0,0,0,0,0,0,0,0,0,0,0,0,0,0,0,0,0,0,0,0,0,0,0,0,0,0,0,0,0,0,0,0,0,0],"id":4,"left_children":[1,3,5,7,9,11,13,15,17,19,21,23,25,27,29,-1,-1,31,33,35,37,39,41,43,45,47,-1,49,51,53,-1,-1,55,57,59,-1,61,63,65,67,69,-1,-1,71,73,75,77,79,-1,-1,-1,81,83,-1,-1,-1,-1,-1,-1,-1,-1,-1,-1,-1,-1,-1,-1,-1,-1,-1,-1,-1,-1,-1,-1,-1,-1,-1,-1,-1,-1,-1,-1,-1,-1],"loss_changes":[5.1514473E3,5.59319E2,9.1796045E2,1.05372314E2,7.4028366E1,9.187091E1,1.5124756E2,2.4039734E1,3.1257812E1,2.6896172E0,5.5214367E0,6.002701E0,9.983398E0,8.456665E0,5.856128E1,0E0,0E0,4.8272705E0,3.3363342E0,2.1952057E-1,4.1117907E-2,7.5586796E0,5.768962E-1,1.3947144E0,5.7858276E-1,2.7395782E0,0E0,2.8460693E-1,1.9743652E0,5.869995E0,0E0,0E0,2.9455566E-1,8.337402E-2,4.4308472E-1,0E0,1.741581E-1,1.00917935E-1,1.1813992E-1,4.0080585E0,2.918167E0,0E0,0E0,1.124239E0,2.6064606E0,1.4721298E-1,8.5957336E-1,1.0719757E0,0E0,0E0,0E0,2.4397583E0,1.3660542E1,0E0,0E0,0E0,0E0,0E0,0E0,0E0,0E0,0E0,0E0,0E0,0E0,0E0,0E0,0E0,0E0,0E0,0E0,0E0,0E0,0E0,0E0,0E0,0E0,0E0,0E0,0E0,0E0,0E0,0E0,0E0,0E0],"parents":[2147483647,0,0,1,1,2,2,3,3,4,4,5,5,6,6,7,7,8,8,9,9,10,10,11,11,12,12,13,13,14,14,17,17,18,18,19,19,20,20,21,21,22,22,23,23,24,24,25,25,27,27,28,28,29,29,32,32,33,33,34,34,36,36,37,37,38,38,39,39,40,40,43,43,44,44,45,45,46,46,47,47,51,51,52,52],"right_children":[2,4,6,8,10,12,14,16,18,20,22,24,26,28,30,-1,-1,32,34,36,38,40,42,44,46,48,-1,50,52,54,-1,-1,56,58,60,-1,62,64,66,68,70,-1,-1,72,74,76,78,80,-1,-1,-1,82,84,-1,-1,-1,-1,-1,-1,-1,-1,-1,-1,-1,-1,-1,-1,-1,-1,-1,-1,-1,-1,-1,-1,-1,-1,-1,-1,-1,-1,-1,-1,-1,-1],"split_conditions":[1.8666555E1,1.2805377E1,2.6233328E1,8.81324E0,1.5992576E1,2.0959272E1,3.3507294E1,6.196154E0,1.0829108E1,1.4457813E1,1.9768131E1,2.0220629E1,2.3714548E1,3.1439129E1,3.654439E1,-1.0123104E0,-6.379429E-1,9.710577E0,1.134193E1,1.3863028E1,1.5299904E1,1.8646301E1,1.9787605E1,1.8378954E1,1.973359E1,2.450603E1,6.1400694E-1,3.2208477E1,3.326246E1,3.1210283E1,2.3581357E0,-5.0700885E-1,1.1606409E1,1.01014185E1,1.2088068E1,-2.1119659E-1,1.3760738E1,1.5780246E1,1.5502581E1,1.7459862E1,1.8027073E1,-4.0956432E-1,-5.6823064E-2,1.8942684E1,1.8646301E1,1.9304714E1,1.9787605E1,2.0375072E1,7.055703E-2,8.9592284E-1,2.517234E-1,3.0604933E1,3.501856E1,4.8981133E-1,1.4098262E0,-4.340486E-1,-1.6608611E-1,-4.732702E-1,-3.658463E-1,-3.2071987E-1,-2.55143E-1,-1.4675047E-1,-1.9148149E-1,-1.1310769E-1,-3.3952978E-2,-1.2289811E-2,-7.5421676E-2,4.571548E-3,1.1295156E-1,-1.5758514E-2,5.304064E-1,1.01212986E-1,3.520082E-1,4.033599E-2,2.1633253E-1,1.3070098E-1,4.9418572E-1,1.9142533E-2,3.1947982E-1,2.8635103E-1,4.849143E-1,7.611322E-1,1.2170594E0,3.237484E-1,1.2386667E0],"split_indices":[3,3,3,2,3,2,3,0,0,2,0,3,3,0,2,0,0,0,2,3,1,2,0,2,0,1,0,1,1,2,0,0,3,2,0,0,2,0,1,3,0,0,0,0,2,0,0,1,0,0,0,3,2,0,0,0,0,0,0,0,0,0,0,0,0,0,0,0,0,0,0,0,0,0,0,0,0,0,0,0,0,0,0,0,0],"split_type":[0,0,0,0,0,0,0,0,0,0,0,0,0,0,0,0,0,0,0,0,0,0,0,0,0,0,0,0,0,0,0,0,0,0,0,0,0,0,0,0,0,0,0,0,0,0,0,0,0,0,0,0,0,0,0,0,0,0,0,0,0,0,0,0,0,0,0,0,0,0,0,0,0,0,0,0,0,0,0,0,0,0,0,0,0],"sum_hessian":[1.953E3,1.319E3,6.34E2,9.46E2,3.73E2,4.04E2,2.3E2,1.3E2,8.16E2,1.67E2,2.06E2,1.85E2,2.19E2,1.45E2,8.5E1,2.2E1,1.08E2,4.78E2,3.38E2,1.4E2,2.7E1,2.04E2,2E0,9.8E1,8.7E1,7.4E1,1.45E2,9E1,5.5E1,7.7E1,8E0,2.07E2,2.71E2,1.72E2,1.66E2,5.3E1,8.7E1,1.2E1,1.5E1,1.99E2,5E0,1E0,1E0,1.5E1,8.3E1,7E0,8E1,7.2E1,2E0,8.9E1,1E0,4.8E1,7E0,2E0,7.5E1,2.69E2,2E0,1.3E1,1.59E2,1.26E2,4E1,4.4E1,4.3E1,9E0,3E0,4E0,1.1E1,3.8E1,1.61E2,1E0,4E0,3E0,1.2E1,9E0,7.4E1,1E0,6E0,1E0,7.9E1,8E0,6.4E1,8E0,4E1,5E0,2E0],"tree_param":{"num_deleted":"0","num_feature":"4","num_nodes":"85","size_leaf_vector":"1"}},{"base_weights":[1.2611866E-2,-7.346012E-1,1.7753454E0,-1.0397446E0,8.325454E-2,1.2306154E0,3.088276E0,-1.9597126E0,-9.694573E-1,-3.0798227E-1,3.1071204E-1,8.3743715E-1,1.58881E0,2.9010742E0,1.738019E0,-8.708095E-1,-5.3736585E-1,-1.0902978E0,-7.091139E-1,-3.8893017E-1,-9.99367E-2,1.3390887E-1,3.6595577E-1,6.672568E-1,1.0402752E0,1.4270061E0,1.9650838E0,2.6164658E0,3.4982104E0,-3.8480282E-1,-1.0215522E0,-7.7399087E-1,-5.194679E-1,-3.9425677E-1,1.99615E-2,-1.4042936E-1,1.958301E-2,1.5076731E-1,-1.3137197E-1,3.172716E-1,5.3383267E-1,5.818874E-1,8.5140586E-1,2.274785E-1,1.0659835E0,-6.1005596E-2,1.4389912E0,2.6558906E-1,6.0149497E-1,2.7117891E0,1.4860306E0,4.1948614E0,2.8259058E0,-3.23938E-1,-2.8407344E-1,-2.3797297E-1,-1.3739759E-1,-7.30271E-2,-1.5928338E-1,-1.2330296E-1,-8.224672E-2,-4.6739783E-2,4.579468E-2,-1.3632403E-2,1.0047398E-1,2.7842958E-2,9.926258E-2,9.477597E-2,-2.2098714E-1,1.0547772E-1,-2.08031E-1,1.7988926E-1,6.117325E-2,1.904691E-1,1.1432197E-1,5.4335978E-2,2.600077E-1,-8.681774E-3,9.677926E-2,3.4035328E-1,2.1633211E-1,3.1750226E-1,4.4745946E-1,4.043408E-1,8.217693E-1,8.561297E-2,4.732675E-1,8.2113266E-1,1.4980584E0,6.0402274E-1,1.0187527E0],"categories":[],"categories_nodes":[],"categories_segments":[],"categories_sizes":[],"default_left":[0,0,0,0,0,0,0,0,0,0,0,0,0,0,0,0,0,0,0,0,0,0,0,0,0,0,0,0,0,0,0,0,0,0,0,0,0,0,0,0,0,0,0,0,0,0,0,0,0,0,0,0,0,0,0,0,0,0,0,0,0,0,0,0,0,0,0,0,0,0,0,0,0,0,0,0,0,0,0,0,0,0,0,0,0,0,0,0,0,0,0],"id":5,"left_children":[1,3,5,7,9,11,13,15,17,19,21,23,25,27,-1,-1,-1,29,31,33,35,37,39,41,43,45,47,49,51,-1,53,55,57,59,-1,61,63,65,67,69,71,73,75,77,79,-1,81,-1,-1,83,85,87,89,-1,-1,-1,-1,-1,-1,-1,-1,-1,-1,-1,-1,-1,-1,-1,-1,-1,-1,-1,-1,-1,-1,-1,-1,-1,-1,-1,-1,-1,-1,-1,-1,-1,-1,-1,-1,-1,-1],"loss_changes":[2.574991E3,3.42737E2,4.1244177E2,6.2762207E1,3.337786E1,5.6834045E1,6.9281494E1,5.922699E0,2.8516113E1,2.2851696E0,2.2658367E0,6.1751556E0,1.0285522E1,1.8208984E1,0E0,0E0,0E0,7.074402E0,3.2644196E0,2.6641655E-1,1.9633693E-1,2.7919555E-1,1.3017597E0,1.2495766E0,1.617218E0,3.3017883E0,8.9611816E-1,8.14679E0,1.1095398E1,0E0,1.0293884E0,9.751282E-1,1.2103462E-1,8.450127E-2,0E0,1.5892017E-1,2.407645E-1,5.4341435E-1,1.3156109E0,5.169547E0,7.2435E-1,5.9902E-1,1.8115234E-1,1.06896505E-1,1.2143784E0,0E0,1.4813538E0,0E0,0E0,1.6326904E-1,7.5862885E-1,1.1945862E1,6.128784E0,0E0,0E0,0E0,0E0,0E0,0E0,0E0,0E0,0E0,0E0,0E0,0E0,0E0,0E0,0E0,0E0,0E0,0E0,0E0,0E0,0E0,0E0,0E0,0E0,0E0,0E0,0E0,0E0,0E0,0E0,0E0,0E0,0E0,0E0,0E0,0E0,0E0,0E0],"parents":[2147483647,0,0,1,1,2,2,3,3,4,4,5,5,6,6,7,7,8,8,9,9,10,10,11,11,12,12,13,13,17,17,18,18,19,19,20,20,21,21,22,22,23,23,24,24,25,25,26,26,27,27,28,28,30,30,31,31,32,32,33,33,35,35,36,36,37,37,38,38,39,39,40,40,41,41,42,42,43,43,44,44,46,46,49,49,50,50,51,51,52,52],"right_children":[2,4,6,8,10,12,14,16,18,20,22,24,26,28,-1,-1,-1,30,32,34,36,38,40,42,44,46,48,50,52,-1,54,56,58,60,-1,62,64,66,68,70,72,74,76,78,80,-1,82,-1,-1,84,86,88,90,-1,-1,-1,-1,-1,-1,-1,-1,-1,-1,-1,-1,-1,-1,-1,-1,-1,-1,-1,-1,-1,-1,-1,-1,-1,-1,-1,-1,-1,-1,-1,-1,-1,-1,-1,-1,-1,-1],"split_conditions":[1.930926E1,1.3863028E1,2.9331585E1,8.1445465E0,1.6877258E1,2.385173E1,3.654439E1,4.018829E0,1.1128212E1,1.5142229E1,1.7747913E1,2.0552073E1,2.6233328E1,3.4105972E1,1.738019E0,-8.708095E-1,-5.3736585E-1,9.548442E0,1.2136552E1,1.5502581E1,1.6484867E1,1.8220022E1,1.8749226E1,2.0708887E1,1.9304714E1,2.1925837E1,2.5655586E1,3.326246E1,3.3979385E1,-3.8480282E-1,1.0624553E1,1.2396553E1,1.097382E1,1.4139583E1,1.99615E-2,1.6994823E1,1.7441656E1,1.7548603E1,1.7641218E1,1.9633888E1,1.9768131E1,2.025029E1,1.734478E1,1.921711E1,2.3437738E1,-6.1005596E-2,2.3127594E1,2.6558906E-1,6.0149497E-1,2.6934244E1,3.2331417E1,3.290181E1,3.4470932E1,-3.23938E-1,-2.8407344E-1,-2.3797297E-1,-1.3739759E-1,-7.30271E-2,-1.5928338E-1,-1.2330296E-1,-8.224672E-2,-4.6739783E-2,4.579468E-2,-1.3632403E-2,1.0047398E-1,2.7842958E-2,9.926258E-2,9.477597E-2,-2.2098714E-1,1.0547772E-1,-2.08031E-1,1.7988926E-1,6.117325E-2,1.904691E-1,1.1432197E-1,5.4335978E-2,2.600077E-1,-8.681774E-3,9.677926E-2,3.4035328E-1,2.1633211E-1,3.1750226E-1,4.4745946E-1,4.043408E-1,8.217693E-1,8.561297E-2,4.732675E-1,8.2113266E-1,1.4980584E0,6.0402274E-1,1.0187527E0],"split_indices":[3,3,3,0,3,0,2,3,2,0,1,1,3,3,0,0,0,2,0,1,2,3,1,3,0,2,0,1,0,0,2,1,1,3,0,0,1,1,1,0,0,1,1,0,2,0,2,0,0,2,0,1,2,0,0,0,0,0,0,0,0,0,0,0,0,0,0,0,0,0,0,0,0,0,0,0,0,0,0,0,0,0,0,0,0,0,0,0,0,0,0],"split_type":[0,0,0,0,0,0,0,0,0,0,0,0,0,0,0,0,0,0,0,0,0,0,0,0,0,0,0,0,0,0,0,0,0,0,0,0,0,0,0,0,0,0,0,0,0,0,0,0,0,0,0,0,0,0,0,0,0,0,0,0,0,0,0,0,0,0,0,0,0,0,0,0,0,0,0,0,0,0,0,0,0,0,0,0,0,0,0,0,0,0,0],"sum_hessian":[1.953E3,1.372E3,5.81E2,9.99E2,3.73E2,4.12E2,1.69E2,6.9E1,9.3E2,1.37E2,2.36E2,1.98E2,2.14E2,1.6E2,9E0,8E0,6.1E1,6.33E2,2.97E2,9.8E1,3.9E1,5.7E1,1.79E2,1.1E2,8.8E1,1.53E2,6.1E1,1.12E2,4.8E1,1.62E2,4.71E2,2.19E2,7.8E1,9.7E1,1E0,2.9E1,1E1,5.4E1,3E0,1.41E2,3.8E1,7.8E1,3.2E1,3E0,8.5E1,1E0,1.52E2,3E0,5.8E1,1.02E2,1E1,2.1E1,2.7E1,2.57E2,2.14E2,2.05E2,1.4E1,4E0,7.4E1,8.3E1,1.4E1,2.8E1,1E0,9E0,1E0,4.2E1,1.2E1,2E0,1E0,1.37E2,4E0,3.1E1,7E0,6E1,1.8E1,1E0,3.1E1,1E0,2E0,6.9E1,1.6E1,2.1E1,1.31E2,3E0,9.9E1,1E0,9E0,9E0,1.2E1,1.3E1,1.4E1],"tree_param":{"num_deleted":"0","num_feature":"4","num_nodes":"91","size_leaf_vector":"1"}},{"base_weights":[1.2580081E-2,-5.514103E-1,1.1849498E0,-7.5885934E-1,-5.4778416E-2,7.588387E-1,2.1012352E0,-1.3919156E0,-7.0657074E-1,-2.8004608E-1,1.6284052E-1,4.8635483E-1,1.0018314E0,1.8546181E0,3.3005404E0,-5.750552E-1,-3.6026463E-1,-8.0048794E-1,-5.830488E-1,-3.0858076E-1,-7.7091105E-2,1.8084443E-1,-7.60061E-1,4.0445307E-1,6.7575157E-1,8.810614E-1,1.1515186E0,1.5373937E0,2.0581288E0,1.719339E0,4.012989E0,-8.892546E-1,-7.402051E-1,-6.9725335E-1,-5.3914404E-1,-3.7680596E-1,-2.7815062E-1,-4.4251077E-2,-1.9960098E-1,1.5478392E-1,9.8029643E-1,-3.5730544E-1,-6.582079E-2,6.2824744E-1,3.7232363E-1,7.025255E-1,-7.6052986E-2,7.868606E-1,1.1266679E0,7.3068047E-1,1.2179697E0,1.6172613E0,2.689387E-1,6.951435E-1,2.107679E0,2.079828E0,4.7840405E-1,-2.3085538E-1,4.2773714E0,-2.6741987E-1,-7.193756E-2,-2.763892E-1,-2.1625179E-1,-6.848482E-2,-2.142717E-1,-4.6103574E-2,-1.6370666E-1,-1.0655221E-1,-2.1227075E-1,-8.508727E-2,-2.8659841E-2,-4.60454E-2,-1.568377E-4,-1.0325966E-1,3.4591677E-3,5.0206643E-2,-2.066454E-1,-1.757126E-2,3.5993522E-1,4.9126484E-2,2.1482544E-1,4.442723E-2,1.3575977E-1,1.6370219E-1,2.7729222E-1,1.6995335E-2,-5.121918E-2,2.4551417E-1,-4.753633E-2,4.0865502E-1,2.6810932E-1,8.0055244E-2,3.4834614E-1,4.9603257E-1,3.3448425E-1,1.4365064E-1,4.9432084E-1,4.8492527E-1,-1.3735352E-1,6.6766286E-1,4.1377893E-1,7.622549E-1,9.3250655E-2,-2.704897E-1,3.716881E-1,1.6416463E0,9.867336E-1],"categories":[],"categories_nodes":[],"categories_segments":[],"categories_sizes":[],"default_left":[0,0,0,0,0,0,0,0,0,0,0,0,0,0,0,0,0,0,0,0,0,0,0,0,0,0,0,0,0,0,0,0,0,0,0,0,0,0,0,0,0,0,0,0,0,0,0,0,0,0,0,0,0,0,0,0,0,0,0,0,0,0,0,0,0,0,0,0,0,0,0,0,0,0,0,0,0,0,0,0,0,0,0,0,0,0,0,0,0,0,0,0,0,0,0,0,0,0,0,0,0,0,0,0,0,0,0],"id":6,"left_children":[1,3,5,7,9,11,13,15,17,19,21,23,25,27,29,-1,-1,31,33,35,37,39,41,43,45,47,49,51,53,55,57,59,61,63,65,67,69,71,73,75,77,-1,-1,79,81,83,85,87,89,91,93,95,-1,97,99,101,103,-1,105,-1,-1,-1,-1,-1,-1,-1,-1,-1,-1,-1,-1,-1,-1,-1,-1,-1,-1,-1,-1,-1,-1,-1,-1,-1,-1,-1,-1,-1,-1,-1,-1,-1,-1,-1,-1,-1,-1,-1,-1,-1,-1,-1,-1,-1,-1,-1,-1],"loss_changes":[1.2926486E3,1.3595248E2,2.4633447E2,2.9834167E1,1.916438E1,2.8314804E1,5.332843E1,4.717682E0,9.533173E0,1.0881319E0,3.4440036E0,2.9376602E0,3.125229E0,7.746277E0,3.0275635E1,0E0,0E0,1.9477844E0,1.5093994E0,2.4397755E-1,9.174812E-2,3.931754E0,6.706898E-1,8.2307434E-1,1.2812843E0,2.144333E0,1.8786011E0,2.1334534E0,5.2884827E0,4.373123E0,3.110852E1,5.3726196E-2,3.739624E-1,6.4149094E-1,6.1242676E-1,9.9286556E-2,9.2853546E-2,1.00228295E-1,1.5661468E-1,2.140905E0,1.4383836E0,0E0,0E0,5.763335E-1,2.2890816E0,1.5480518E0,4.736439E-2,3.049717E0,6.4813614E-1,2.8848066E0,1.9250183E0,1.327301E0,0E0,6.051161E0,5.1723633E0,6.550102E0,5.315468E0,0E0,6.797333E0,0E0,0E0,0E0,0E0,0E0,0E0,0E0,0E0,0E0,0E0,0E0,0E0,0E0,0E0,0E0,0E0,0E0,0E0,0E0,0E0,0E0,0E0,0E0,0E0,0E0,0E0,0E0,0E0,0E0,0E0,0E0,0E0,0E0,0E0,0E0,0E0,0E0,0E0,0E0,0E0,0E0,0E0,0E0,0E0,0E0,0E0,0E0,0E0],"parents":[2147483647,0,0,1,1,2,2,3,3,4,4,5,5,6,6,7,7,8,8,9,9,10,10,11,11,12,12,13,13,14,14,17,17,18,18,19,19,20,20,21,21,22,22,23,23,24,24,25,25,26,26,27,27,28,28,29,29,30,30,31,31,32,32,33,33,34,34,35,35,36,36,37,37,38,38,39,39,40,40,43,43,44,44,45,45,46,46,47,47,48,48,49,49,50,50,51,51,53,53,54,54,55,55,56,56,58,58],"right_children":[2,4,6,8,10,12,14,16,18,20,22,24,26,28,30,-1,-1,32,34,36,38,40,42,44,46,48,50,52,54,56,58,60,62,64,66,68,70,72,74,76,78,-1,-1,80,82,84,86,88,90,92,94,96,-1,98,100,102,104,-1,106,-1,-1,-1,-1,-1,-1,-1,-1,-1,-1,-1,-1,-1,-1,-1,-1,-1,-1,-1,-1,-1,-1,-1,-1,-1,-1,-1,-1,-1,-1,-1,-1,-1,-1,-1,-1,-1,-1,-1,-1,-1,-1,-1,-1,-1,-1,-1,-1],"split_conditions":[1.8666555E1,1.25026655E1,2.6122723E1,8.1445465E0,1.5780246E1,2.2231178E1,3.3671997E1,5.000037E0,1.0681359E1,1.5299904E1,1.9768131E1,2.063466E1,2.3951859E1,3.1935696E1,3.411739E1,-5.750552E-1,-3.6026463E-1,9.612691E0,1.0975703E1,1.358654E1,1.5380733E1,1.8646301E1,1.9787605E1,1.8415956E1,2.3008118E1,2.4245136E1,2.3861538E1,3.111373E1,3.0604933E1,3.480459E1,3.4375404E1,1.0012457E1,9.463907E0,1.0705567E1,9.858018E0,1.3810671E1,1.6728153E1,1.5692878E1,1.6667048E1,1.9526909E1,1.8027073E1,-3.5730544E-1,-6.582079E-2,1.8942684E1,1.8987585E1,2.001223E1,2.3785889E1,2.4209314E1,2.3888979E1,2.4033857E1,2.408058E1,2.5655586E1,2.689387E-1,2.6114222E1,3.326246E1,3.4281075E1,3.4281075E1,-2.3085538E-1,3.4281075E1,-2.6741987E-1,-7.193756E-2,-2.763892E-1,-2.1625179E-1,-6.848482E-2,-2.142717E-1,-4.6103574E-2,-1.6370666E-1,-1.0655221E-1,-2.1227075E-1,-8.508727E-2,-2.8659841E-2,-4.60454E-2,-1.568377E-4,-1.0325966E-1,3.4591677E-3,5.0206643E-2,-2.066454E-1,-1.757126E-2,3.5993522E-1,4.9126484E-2,2.1482544E-1,4.442723E-2,1.3575977E-1,1.6370219E-1,2.7729222E-1,1.6995335E-2,-5.121918E-2,2.4551417E-1,-4.753633E-2,4.0865502E-1,2.6810932E-1,8.0055244E-2,3.4834614E-1,4.9603257E-1,3.3448425E-1,1.4365064E-1,4.9432084E-1,4.8492527E-1,-1.3735352E-1,6.6766286E-1,4.1377893E-1,7.622549E-1,9.3250655E-2,-2.704897E-1,3.716881E-1,1.6416463E0,9.867336E-1],"split_indices":[3,3,1,0,0,3,1,3,0,1,0,2,1,0,2,0,0,2,2,2,0,2,0,2,2,3,2,1,3,0,3,3,0,0,1,0,2,2,1,0,0,0,0,0,2,1,0,3,2,1,1,0,0,2,1,1,1,0,1,0,0,0,0,0,0,0,0,0,0,0,0,0,0,0,0,0,0,0,0,0,0,0,0,0,0,0,0,0,0,0,0,0,0,0,0,0,0,0,0,0,0,0,0,0,0,0,0],"split_type":[0,0,0,0,0,0,0,0,0,0,0,0,0,0,0,0,0,0,0,0,0,0,0,0,0,0,0,0,0,0,0,0,0,0,0,0,0,0,0,0,0,0,0,0,0,0,0,0,0,0,0,0,0,0,0,0,0,0,0,0,0,0,0,0,0,0,0,0,0,0,0,0,0,0,0,0,0,0,0,0,0,0,0,0,0,0,0,0,0,0,0,0,0,0,0,0,0,0,0,0,0,0,0,0,0,0,0],"sum_hessian":[1.953E3,1.319E3,6.34E2,9.3E2,3.89E2,4.34E2,2E2,6.9E1,8.61E2,1.91E2,1.98E2,2.06E2,2.28E2,1.68E2,3.2E1,1.6E1,5.3E1,4.86E2,3.75E2,1.67E2,2.4E1,1.95E2,3E0,1.46E2,6E1,1.3E2,9.8E1,6.9E1,9.9E1,1.1E1,2.1E1,1.91E2,2.95E2,1E2,2.75E2,4.8E1,1.19E2,2E1,4E0,1.9E2,5E0,1E0,2E0,1.6E1,1.3E2,5.8E1,2E0,9.7E1,3.3E1,1.5E1,8.3E1,6E1,9E0,4E0,9.5E1,8E0,3E0,1E0,2E1,1.9E2,1E0,2.4E1,2.71E2,4E0,9.6E1,5E0,2.7E2,4.7E1,1E0,1.15E2,4E0,5E0,1.5E1,2E0,2E0,1.88E2,2E0,1E0,4E0,3E0,1.3E1,3.5E1,9.5E1,3.6E1,2.2E1,1E0,1E0,9.4E1,3E0,1.4E1,1.9E1,8E0,7E0,1.3E1,7E1,2E0,5.8E1,2E0,2E0,8E1,1.5E1,6E0,2E0,1E0,2E0,7E0,1.3E1],"tree_param":{"num_deleted":"0","num_feature":"4","num_nodes":"107","size_leaf_vector":"1"}},{"base_weights":[1.1671401E-2,-3.6115175E-1,9.0863496E-1,-5.3138167E-1,-7.084683E-4,6.4742064E-1,1.6629962E0,-9.660531E-1,-4.9193725E-1,-1.7898604E-1,1.5575755E-1,4.2606723E-1,8.2401323E-1,1.525312E0,3.3967385E0,-4.8524556E-1,-8.6708295E-1,-5.655939E-1,-4.1343802E-1,-2.2247396E-1,-7.536348E-2,6.223794E-3,1.7906904E-1,-1.961828E-1,4.4719455E-1,7.290749E-1,1.0400938E0,1.3451754E0,1.8350435E0,1.62212E-1,1.096199E0,-2.9174116E-1,-7.555176E-1,-5.564214E-1,-9.450691E-1,-4.39607E-1,-2.9989064E-1,-2.4275877E-1,-1.773641E-1,-1.0033127E-1,5.1787116E-2,5.8563996E-2,-3.8788366E-1,1.7391281E-1,1.6615449E-1,3.7072499E-3,-8.306408E-2,4.256624E-1,1.0222152E0,1.162019E0,6.790345E-1,1.0583837E0,-3.328686E-2,1.4184678E0,6.8318766E-1,2.144742E0,1.0816001E0,-9.632375E-2,-2.3915535E-1,-2.0575674E-1,-1.5876468E-1,-3.0690256E-1,-4.823313E-2,-1.8743147E-1,-1.2892161E-1,-3.5265446E-2,-1.0373127E-1,-6.654214E-2,-1.3522157E-1,-9.025336E-3,-5.8025006E-2,-2.3452798E-2,-7.042654E-2,5.6077912E-2,-6.6767693E-3,-2.1243625E-4,1.3320294E-1,2.0193674E-2,-1.686159E-1,5.3329147E-2,-4.0407017E-2,-1.9396305E-2,2.1064568E-2,1.3406056E-1,3.5171963E-2,3.8636753E-1,-4.592514E-2,1.8076287E-1,4.5906538E-1,9.076646E-2,2.1623833E-1,3.1978092E-1,8.172112E-2,4.3462852E-1,2.0047417E-1,1.3643275E-1,4.4509593E-1,3.3625296E-1,7.446008E-1,-4.1634344E-2,5.483121E-1],"categories":[],"categories_nodes":[],"categories_segments":[],"categories_sizes":[],"default_left":[0,0,0,0,0,0,0,0,0,0,0,0,0,0,0,0,0,0,0,0,0,0,0,0,0,0,0,0,0,0,0,0,0,0,0,0,0,0,0,0,0,0,0,0,0,0,0,0,0,0,0,0,0,0,0,0,0,0,0,0,0,0,0,0,0,0,0,0,0,0,0,0,0,0,0,0,0,0,0,0,0,0,0,0,0,0,0,0,0,0,0,0,0,0,0,0,0,0,0,0,0],"id":7,"left_children":[1,3,5,7,9,11,13,15,17,19,21,23,25,27,29,-1,31,33,35,37,39,41,43,45,47,49,51,53,55,-1,-1,-1,57,59,61,63,65,67,69,71,73,75,77,-1,79,81,-1,83,85,87,89,91,-1,93,95,97,99,-1,-1,-1,-1,-1,-1,-1,-1,-1,-1,-1,-1,-1,-1,-1,-1,-1,-1,-1,-1,-1,-1,-1,-1,-1,-1,-1,-1,-1,-1,-1,-1,-1,-1,-1,-1,-1,-1,-1,-1,-1,-1,-1,-1],"loss_changes":[6.537629E2,8.473535E1,1.1203E2,1.5607086E1,1.2412984E1,1.6379166E1,2.990915E1,3.5618744E0,4.750229E0,9.2055035E-1,8.250332E-1,2.6118546E0,4.103592E0,5.2311096E0,5.3716354E0,0E0,7.6553345E-2,1.0126343E0,1.119133E0,9.0539455E-2,2.0520008E-1,7.0342886E-1,9.643674E-1,1.13940775E-1,1.8678284E0,2.8506165E0,1.5911179E0,3.4461212E0,8.880585E0,0E0,0E0,0E0,4.3190575E-1,1.1652985E0,3.8566875E-1,3.527832E-1,6.4534616E-1,3.2705927E-1,1.1002767E-1,1.3949221E-1,1.142275E-1,6.8570006E-1,3.5495788E-1,0E0,7.224641E-1,1.8179495E-2,0E0,1.1314278E0,2.0706515E0,2.3739548E0,2.187355E0,1.1923218E-1,0E0,8.727722E-1,1.3364639E0,8.613647E0,1.4822212E1,0E0,0E0,0E0,0E0,0E0,0E0,0E0,0E0,0E0,0E0,0E0,0E0,0E0,0E0,0E0,0E0,0E0,0E0,0E0,0E0,0E0,0E0,0E0,0E0,0E0,0E0,0E0,0E0,0E0,0E0,0E0,0E0,0E0,0E0,0E0,0E0,0E0,0E0,0E0,0E0,0E0,0E0,0E0,0E0],"parents":[2147483647,0,0,1,1,2,2,3,3,4,4,5,5,6,6,7,7,8,8,9,9,10,10,11,11,12,12,13,13,14,14,16,16,17,17,18,18,19,19,20,20,21,21,22,22,23,23,24,24,25,25,26,26,27,27,28,28,32,32,33,33,34,34,35,35,36,36,37,37,38,38,39,39,40,40,41,41,42,42,44,44,45,45,47,47,48,48,49,49,50,50,51,51,53,53,54,54,55,55,56,56],"right_children":[2,4,6,8,10,12,14,16,18,20,22,24,26,28,30,-1,32,34,36,38,40,42,44,46,48,50,52,54,56,-1,-1,-1,58,60,62,64,66,68,70,72,74,76,78,-1,80,82,-1,84,86,88,90,92,-1,94,96,98,100,-1,-1,-1,-1,-1,-1,-1,-1,-1,-1,-1,-1,-1,-1,-1,-1,-1,-1,-1,-1,-1,-1,-1,-1,-1,-1,-1,-1,-1,-1,-1,-1,-1,-1,-1,-1,-1,-1,-1,-1,-1,-1,-1,-1],"split_conditions":[1.904183E1,1.266715E1,2.9396805E1,8.503737E0,1.7136549E1,2.3127594E1,3.654439E1,4.018829E0,1.057812E1,1.4139583E1,1.7617378E1,1.8076847E1,2.5789806E1,3.4105972E1,3.0165356E1,-4.8524556E-1,6.4387617E0,1.1119569E1,1.1838562E1,1.346828E1,1.7459862E1,1.8410566E1,1.7479214E1,1.95767E1,2.4340904E1,2.3437738E1,3.335262E1,3.326246E1,3.430253E1,1.62212E-1,1.096199E0,-2.9174116E-1,6.3349614E0,8.798134E0,1.1131723E1,1.01014185E1,1.1955921E1,1.341137E1,1.3782772E1,1.6761042E1,1.5502581E1,1.8107208E1,1.7641218E1,1.7391281E-1,1.8963158E1,1.921287E1,-8.306408E-2,2.2929483E1,2.4460587E1,2.3101624E1,2.385173E1,3.159539E1,-3.328686E-2,3.411739E1,3.501856E1,3.2815105E1,3.5210712E1,-9.632375E-2,-2.3915535E-1,-2.0575674E-1,-1.5876468E-1,-3.0690256E-1,-4.823313E-2,-1.8743147E-1,-1.2892161E-1,-3.5265446E-2,-1.0373127E-1,-6.654214E-2,-1.3522157E-1,-9.025336E-3,-5.8025006E-2,-2.3452798E-2,-7.042654E-2,5.6077912E-2,-6.6767693E-3,-2.1243625E-4,1.3320294E-1,2.0193674E-2,-1.686159E-1,5.3329147E-2,-4.0407017E-2,-1.9396305E-2,2.1064568E-2,1.3406056E-1,3.5171963E-2,3.8636753E-1,-4.592514E-2,1.8076287E-1,4.5906538E-1,9.076646E-2,2.1623833E-1,3.1978092E-1,8.172112E-2,4.3462852E-1,2.0047417E-1,1.3643275E-1,4.4509593E-1,3.3625296E-1,7.446008E-1,-4.1634344E-2,5.483121E-1],"split_indices":[1,3,1,3,1,2,2,3,0,3,2,3,1,3,1,0,3,3,1,1,3,3,0,1,0,2,0,1,0,0,0,0,1,0,1,2,1,1,3,0,1,3,1,0,1,1,0,2,0,1,0,2,0,2,2,1,3,0,0,0,0,0,0,0,0,0,0,0,0,0,0,0,0,0,0,0,0,0,0,0,0,0,0,0,0,0,0,0,0,0,0,0,0,0,0,0,0,0,0,0,0],"split_type":[0,0,0,0,0,0,0,0,0,0,0,0,0,0,0,0,0,0,0,0,0,0,0,0,0,0,0,0,0,0,0,0,0,0,0,0,0,0,0,0,0,0,0,0,0,0,0,0,0,0,0,0,0,0,0,0,0,0,0,0,0,0,0,0,0,0,0,0,0,0,0,0,0,0,0,0,0,0,0,0,0,0,0,0,0,0,0,0,0,0,0,0,0,0,0,0,0,0,0,0,0],"sum_hessian":[1.953E3,1.38E3,5.73E2,9.37E2,4.43E2,4.27E2,1.46E2,7.6E1,8.61E2,2.07E2,2.36E2,1.91E2,2.36E2,1.37E2,9E0,8E0,6.8E1,4.41E2,4.2E2,1.45E2,6.2E1,3.2E1,2.04E2,6E0,1.85E2,1.67E2,6.9E1,9E1,4.7E1,1E0,8E0,3.1E1,3.7E1,4.33E2,8E0,3.39E2,8.1E1,9.7E1,4.8E1,5.2E1,1E1,2.9E1,3E0,5E0,1.99E2,2E0,4E0,1.8E2,5E0,1.5E1,1.52E2,6.8E1,1E0,8E1,1E1,3.2E1,1.5E1,4E0,3.3E1,7.1E1,3.62E2,7E0,1E0,1.4E1,3.25E2,1.7E1,6.4E1,9E1,7E0,5E0,4.3E1,4.6E1,6E0,3E0,7E0,2.6E1,3E0,1E0,2E0,1.92E2,7E0,1E0,1E0,1.68E2,1.2E1,4E0,1E0,7E0,8E0,1.6E1,1.36E2,6.7E1,1E0,7.6E1,4E0,9E0,1E0,9E0,2.3E1,6E0,9E0],"tree_param":{"num_deleted":"0","num_feature":"4","num_nodes":"101","size_leaf_vector":"1"}},{"base_weights":[9.898031E-3,-2.2840503E-1,7.2235537E-1,-3.4764686E-1,1.00017905E-1,5.305021E-1,1.2386657E0,-5.093989E-1,-2.872424E-1,-1.0631431E-2,1.6041411E-1,4.3307224E-1,6.9676876E-1,1.1257584E0,2.503558E0,-9.431558E-1,-4.6865425E-1,-3.311534E-1,-1.8852518E-1,-4.306849E-2,6.2787786E-2,6.799242E-2,1.851517E-1,1.3492066E-1,4.5334023E-1,3.5745406E-1,6.549031E-1,2.0841102E-1,1.1548423E0,2.5803033E-1,2.8069096E0,-3.2149646E-1,-1.8297543E-1,-5.67318E-1,-4.4110677E-1,-5.155806E-1,-3.241994E-1,-2.3286274E-1,-1.5219685E-1,-2.535798E-2,-2.6715252E-1,2.087731E-2,2.4353647E-1,3.9869633E-2,5.4216415E-1,5.35847E-1,1.7147285E-1,-8.166528E-2,1.9118397E-1,4.74038E-1,1.675781E-1,-1.4286691E-1,6.871498E-1,3.0101413E-1,-1.9680864E-1,1.052634E0,1.4641213E0,1.1295121E0,5.5800784E-1,-4.9638893E-2,-1.715087E-1,-1.2947875E-1,-1.7759123E-1,-1.8821908E-2,-1.7047936E-1,-9.635431E-2,-1.9111492E-1,-7.432212E-2,-2.7958965E-2,-5.7090395E-3,-4.9448587E-2,-2.2201398E-2,1.8715443E-2,-1.3626389E-1,4.0099718E-2,-5.94616E-3,3.8602125E-2,1.2305918E-1,-5.1289182E-2,1.6973335E-1,5.6627016E-3,-1.404748E-2,2.5802135E-1,2.939086E-2,2.519288E-1,3.5767224E-2,6.723498E-2,-2.9763699E-2,-4.3536187E-3,7.375359E-2,-2.1890642E-2,1.3574365E-1,2.7966094E-1,-1.494566E-1,1.5464677E-1,3.9557448E-1,1.9446911E-1,3.6096087E-1,9.261782E-2,7.1082556E-1,2.8747123E-1],"categories":[],"categories_nodes":[],"categories_segments":[],"categories_sizes":[],"default_left":[0,0,0,0,0,0,0,0,0,0,0,0,0,0,0,0,0,0,0,0,0,0,0,0,0,0,0,0,0,0,0,0,0,0,0,0,0,0,0,0,0,0,0,0,0,0,0,0,0,0,0,0,0,0,0,0,0,0,0,0,0,0,0,0,0,0,0,0,0,0,0,0,0,0,0,0,0,0,0,0,0,0,0,0,0,0,0,0,0,0,0,0,0,0,0,0,0,0,0,0,0],"id":8,"left_children":[1,3,5,7,9,11,13,15,17,19,21,23,25,27,29,31,33,35,37,39,41,43,45,47,49,-1,51,53,55,-1,57,-1,-1,59,61,63,65,67,69,71,73,75,77,79,81,83,85,87,89,91,93,-1,95,-1,-1,97,99,-1,-1,-1,-1,-1,-1,-1,-1,-1,-1,-1,-1,-1,-1,-1,-1,-1,-1,-1,-1,-1,-1,-1,-1,-1,-1,-1,-1,-1,-1,-1,-1,-1,-1,-1,-1,-1,-1,-1,-1,-1,-1,-1,-1],"loss_changes":[3.319166E2,5.740673E1,4.7880234E1,1.0357025E1,2.6146803E0,5.513809E0,1.6033249E1,4.700905E0,3.3403702E0,3.3373317E-1,5.658426E-1,1.3226662E0,1.9330482E0,3.0409698E0,2.5712242E0,3.7407684E-1,4.7815704E-1,5.2796555E-1,3.5757256E-1,3.7818393E-1,3.2065195E-1,7.1181077E-1,8.627415E-1,2.1058658E-1,1.1862907E0,0E0,4.813671E0,4.094262E0,2.2205048E0,0E0,2.548294E-1,0E0,0E0,2.1591187E-3,5.1570892E-2,3.937807E-1,2.9115295E-1,2.0132542E-1,2.2731519E-1,3.9304075E-1,5.855534E-1,1.6048536E-1,6.2277657E-1,5.7448804E-1,6.0200405E-1,8.492737E-1,5.041399E-1,3.2735877E-3,2.0564511E-1,1.54385E0,3.9628537E0,0E0,2.0942535E0,0E0,0E0,1.0045418E1,1.00948715E1,0E0,0E0,0E0,0E0,0E0,0E0,0E0,0E0,0E0,0E0,0E0,0E0,0E0,0E0,0E0,0E0,0E0,0E0,0E0,0E0,0E0,0E0,0E0,0E0,0E0,0E0,0E0,0E0,0E0,0E0,0E0,0E0,0E0,0E0,0E0,0E0,0E0,0E0,0E0,0E0,0E0,0E0,0E0,0E0],"parents":[2147483647,0,0,1,1,2,2,3,3,4,4,5,5,6,6,7,7,8,8,9,9,10,10,11,11,12,12,13,13,14,14,15,15,16,16,17,17,18,18,19,19,20,20,21,21,22,22,23,23,24,24,26,26,27,27,28,28,30,30,33,33,34,34,35,35,36,36,37,37,38,38,39,39,40,40,41,41,42,42,43,43,44,44,45,45,46,46,47,47,48,48,49,49,50,50,52,52,55,55,56,56],"right_children":[2,4,6,8,10,12,14,16,18,20,22,24,26,28,30,32,34,36,38,40,42,44,46,48,50,-1,52,54,56,-1,58,-1,-1,60,62,64,66,68,70,72,74,76,78,80,82,84,86,88,90,92,94,-1,96,-1,-1,98,100,-1,-1,-1,-1,-1,-1,-1,-1,-1,-1,-1,-1,-1,-1,-1,-1,-1,-1,-1,-1,-1,-1,-1,-1,-1,-1,-1,-1,-1,-1,-1,-1,-1,-1,-1,-1,-1,-1,-1,-1,-1,-1,-1,-1],"split_conditions":[2.063466E1,1.4092116E1,3.1935696E1,9.835922E0,1.7965044E1,2.4272837E1,3.654439E1,6.2788787E0,1.1784311E1,1.7747913E1,1.8220022E1,1.8963158E1,2.450603E1,3.0604933E1,3.200609E1,5.18473E0,8.503737E0,9.463907E0,1.224702E1,1.7758385E1,1.8292997E1,1.8738413E1,1.79016E1,2.0538591E1,2.408058E1,3.5745406E-1,2.3780909E1,2.6114222E1,3.3671997E1,2.5803033E-1,3.4100605E1,-3.2149646E-1,-1.8297543E-1,5.18473E0,9.897991E0,9.884381E0,1.2797606E1,1.245726E1,1.2611019E1,1.7280874E1,1.88806E1,1.8660517E1,1.8514206E1,1.6761042E1,1.4481401E1,1.7548603E1,1.904183E1,1.5502581E1,1.8884932E1,2.4033857E1,2.438617E1,-1.4286691E-1,2.4806793E1,3.0101413E-1,-1.9680864E-1,3.411739E1,3.4147125E1,1.1295121E0,5.5800784E-1,-4.9638893E-2,-1.715087E-1,-1.2947875E-1,-1.7759123E-1,-1.8821908E-2,-1.7047936E-1,-9.635431E-2,-1.9111492E-1,-7.432212E-2,-2.7958965E-2,-5.7090395E-3,-4.9448587E-2,-2.2201398E-2,1.8715443E-2,-1.3626389E-1,4.0099718E-2,-5.94616E-3,3.8602125E-2,1.2305918E-1,-5.1289182E-2,1.6973335E-1,5.6627016E-3,-1.404748E-2,2.5802135E-1,2.939086E-2,2.519288E-1,3.5767224E-2,6.723498E-2,-2.9763699E-2,-4.3536187E-3,7.375359E-2,-2.1890642E-2,1.3574365E-1,2.7966094E-1,-1.494566E-1,1.5464677E-1,3.9557448E-1,1.9446911E-1,3.6096087E-1,9.261782E-2,7.1082556E-1,2.8747123E-1],"split_indices":[2,3,0,3,2,1,2,2,2,1,3,1,1,3,1,0,3,0,0,3,3,2,1,3,1,0,3,2,1,0,1,0,0,0,0,3,0,1,2,3,0,1,1,0,0,1,1,1,1,1,0,0,1,0,0,2,0,0,0,0,0,0,0,0,0,0,0,0,0,0,0,0,0,0,0,0,0,0,0,0,0,0,0,0,0,0,0,0,0,0,0,0,0,0,0,0,0,0,0,0,0],"split_type":[0,0,0,0,0,0,0,0,0,0,0,0,0,0,0,0,0,0,0,0,0,0,0,0,0,0,0,0,0,0,0,0,0,0,0,0,0,0,0,0,0,0,0,0,0,0,0,0,0,0,0,0,0,0,0,0,0,0,0,0,0,0,0,0,0,0,0,0,0,0,0,0,0,0,0,0,0,0,0,0,0,0,0,0,0,0,0,0,0,0,0,0,0,0,0,0,0,0,0,0,0],"sum_hessian":[1.953E3,1.464E3,4.89E2,1.074E3,3.9E2,3.58E2,1.31E2,2.9E2,7.84E2,1.38E2,2.52E2,2.28E2,1.3E2,1.22E2,9E0,2.3E1,2.67E2,5.41E2,2.43E2,9.6E1,4.2E1,5.4E1,1.98E2,1.5E1,2.13E2,8E0,1.22E2,4E0,1.18E2,2E0,7E0,1.5E1,8E0,5.4E1,2.13E2,1.7E1,5.24E2,1.07E2,1.36E2,9E1,6E0,3.5E1,7E0,5.2E1,2E0,6E0,1.92E2,3E0,1.2E1,1.98E2,1.5E1,3E0,1.19E2,2E0,2E0,9.2E1,2.6E1,2E0,5E0,1E0,5.3E1,2.04E2,9E0,2E0,1.5E1,5.21E2,3E0,9.6E1,1.1E1,1.2E1,1.24E2,5.8E1,3.2E1,4E0,2E0,2.6E1,9E0,5E0,2E0,1E0,5.1E1,1E0,1E0,3E0,3E0,9.8E1,9.4E1,2E0,1E0,1E1,2E0,1.91E2,7E0,5E0,1E1,5E0,1.14E2,7.6E1,1.6E1,8E0,1.8E1],"tree_param":{"num_deleted":"0","num_feature":"4","num_nodes":"101","size_leaf_vector":"1"}},{"base_weights":[8.917508E-3,-1.6046931E-1,5.153313E-1,-2.5549603E-1,4.835938E-2,4.2398307E-1,1.1277397E0,-4.2406029E-1,-2.2480002E-1,-5.3937238E-2,1.0649991E-1,3.3471948E-1,6.401235E-1,9.627818E-1,2.1414776E0,-2.824185E-1,-3.8926527E-1,-2.6142815E-1,-1.6783212E-1,-3.9901383E-2,-1.839068E-1,1.1121102E-1,-1.8710175E-1,3.477495E-1,-1.3246219E-1,6.8401414E-1,-8.179307E-2,1.3616153E0,6.646656E-1,1.4393635E-1,6.930962E-1,-4.1505736E-1,-2.657466E-1,-2.4984846E-1,-3.0850595E-1,-2.7504846E-1,-1.5528874E-1,-6.523229E-2,1.9580308E-1,-2.4971828E-1,-6.361798E-2,1.00385636E-1,3.0226225E-1,-7.025514E-2,1.8396378E-4,3.1185883E-1,5.8416593E-1,4.9522083E-2,-3.7232304E-1,5.797343E-1,9.215285E-1,2.177624E-1,-4.7199473E-1,3.3578563E-1,1.7894292E0,-1.2710495E-1,7.4592745E-1,-1.164135E-1,-1.870742E-1,-8.8376835E-2,7.6951504E-2,-7.6546416E-2,-1.8737984E-3,-1.1132982E-1,-5.858451E-2,-1.1095443E-1,2.3784436E-2,-2.803187E-2,-5.151561E-2,-2.2258323E-2,2.144057E-2,6.976605E-3,8.392542E-2,2.045145E-2,-8.77842E-2,3.9349366E-2,-5.0329175E-2,3.138129E-2,-9.509239E-2,1.544247E-1,3.1023027E-2,1.01226605E-1,4.8847735E-2,1.9005205E-1,8.254665E-2,-1.0075169E-1,9.7848706E-2,-2.8676892E-2,-1.298113E-1,1.9510235E-1,7.8961544E-2,4.536588E-1,1.7198634E-1,-2.0100538E-1,-6.1643604E-2,1.6339818E-1,-1.6895086E-1,8.766122E-1,3.5051662E-1,1.1033903E-1,3.617473E-1],"categories":[],"categories_nodes":[],"categories_segments":[],"categories_sizes":[],"default_left":[0,0,0,0,0,0,0,0,0,0,0,0,0,0,0,0,0,0,0,0,0,0,0,0,0,0,0,0,0,0,0,0,0,0,0,0,0,0,0,0,0,0,0,0,0,0,0,0,0,0,0,0,0,0,0,0,0,0,0,0,0,0,0,0,0,0,0,0,0,0,0,0,0,0,0,0,0,0,0,0,0,0,0,0,0,0,0,0,0,0,0,0,0,0,0,0,0,0,0,0,0],"id":9,"left_children":[1,3,5,7,9,11,13,15,17,19,21,23,25,27,29,-1,31,33,35,37,39,41,43,45,47,49,51,53,55,-1,-1,57,59,61,63,65,67,69,71,73,75,77,79,-1,-1,81,83,85,87,89,91,-1,93,95,97,-1,99,-1,-1,-1,-1,-1,-1,-1,-1,-1,-1,-1,-1,-1,-1,-1,-1,-1,-1,-1,-1,-1,-1,-1,-1,-1,-1,-1,-1,-1,-1,-1,-1,-1,-1,-1,-1,-1,-1,-1,-1,-1,-1,-1,-1],"loss_changes":[1.6769649E2,2.9084267E1,2.6933655E1,5.115143E0,2.7356834E0,8.043343E0,8.473343E0,2.405651E0,1.738102E0,2.9730898E-1,4.2608142E-1,1.9027138E0,3.9849358E0,5.753315E0,1.136055E0,0E0,3.5482788E-1,2.0530319E-1,4.1050434E-1,9.203052E-1,1.1077565E-1,5.673678E-1,4.4333607E-2,2.3379135E0,4.112963E-1,2.3636093E0,2.863835E0,9.493011E0,3.32304E0,0E0,0E0,4.2831612E-1,4.9733377E-1,5.4260063E-1,6.2206554E-1,1.1713941E0,2.9287243E-1,1.7437035E-1,2.107706E-1,1.5630889E-1,1.6400532E-1,5.1734996E-1,5.805714E-1,0E0,0E0,9.3559647E-1,4.0506744E-1,7.4917626E-1,2.5475979E-2,1.706152E0,6.126686E0,0E0,1.7898369E-1,1.8088899E0,7.8402786E0,0E0,5.121338E0,0E0,0E0,0E0,0E0,0E0,0E0,0E0,0E0,0E0,0E0,0E0,0E0,0E0,0E0,0E0,0E0,0E0,0E0,0E0,0E0,0E0,0E0,0E0,0E0,0E0,0E0,0E0,0E0,0E0,0E0,0E0,0E0,0E0,0E0,0E0,0E0,0E0,0E0,0E0,0E0,0E0,0E0,0E0,0E0],"parents":[2147483647,0,0,1,1,2,2,3,3,4,4,5,5,6,6,7,7,8,8,9,9,10,10,11,11,12,12,13,13,14,14,16,16,17,17,18,18,19,19,20,20,21,21,22,22,23,23,24,24,25,25,26,26,27,27,28,28,31,31,32,32,33,33,34,34,35,35,36,36,37,37,38,38,39,39,40,40,41,41,42,42,45,45,46,46,47,47,48,48,49,49,50,50,52,52,53,53,54,54,56,56],"right_children":[2,4,6,8,10,12,14,16,18,20,22,24,26,28,30,-1,32,34,36,38,40,42,44,46,48,50,52,54,56,-1,-1,58,60,62,64,66,68,70,72,74,76,78,80,-1,-1,82,84,86,88,90,92,-1,94,96,98,-1,100,-1,-1,-1,-1,-1,-1,-1,-1,-1,-1,-1,-1,-1,-1,-1,-1,-1,-1,-1,-1,-1,-1,-1,-1,-1,-1,-1,-1,-1,-1,-1,-1,-1,-1,-1,-1,-1,-1,-1,-1,-1,-1,-1,-1],"split_conditions":[2.063466E1,1.3881802E1,3.358196E1,9.210947E0,1.7548603E1,2.6934244E1,3.654439E1,4.6027813E0,1.0971101E1,1.734478E1,2.158642E1,2.6442987E1,3.335262E1,3.3979385E1,3.480459E1,-2.824185E-1,8.798134E0,1.0769385E1,1.0853906E1,1.7136549E1,1.7638128E1,2.0727158E1,2.2397118E1,2.6233328E1,2.6264065E1,3.3151745E1,3.2498913E1,3.3939274E1,3.111373E1,1.4393635E-1,6.930962E-1,8.8655615E0,9.744316E0,1.0689651E1,1.1159938E1,1.091601E1,1.1236081E1,1.7516846E1,1.7617378E1,1.6728153E1,1.7639408E1,2.0658928E1,2.1122667E1,-7.025514E-2,1.8396378E-4,2.4223083E1,2.6807411E1,2.5175812E1,2.7339584E1,3.1723034E1,3.2548508E1,2.177624E-1,3.3403004E1,3.3080914E1,3.3604465E1,-1.2710495E-1,3.4470932E1,-1.164135E-1,-1.870742E-1,-8.8376835E-2,7.6951504E-2,-7.6546416E-2,-1.8737984E-3,-1.1132982E-1,-5.858451E-2,-1.1095443E-1,2.3784436E-2,-2.803187E-2,-5.151561E-2,-2.2258323E-2,2.144057E-2,6.976605E-3,8.392542E-2,2.045145E-2,-8.77842E-2,3.9349366E-2,-5.0329175E-2,3.138129E-2,-9.509239E-2,1.544247E-1,3.1023027E-2,1.01226605E-1,4.8847735E-2,1.9005205E-1,8.254665E-2,-1.0075169E-1,9.7848706E-2,-2.8676892E-2,-1.298113E-1,1.9510235E-1,7.8961544E-2,4.536588E-1,1.7198634E-1,-2.0100538E-1,-6.1643604E-2,1.6339818E-1,-1.6895086E-1,8.766122E-1,3.5051662E-1,1.1033903E-1,3.617473E-1],"split_indices":[2,3,0,3,1,2,2,1,0,1,3,2,0,0,0,0,0,1,2,1,3,3,0,3,1,3,1,3,1,0,0,3,2,1,1,1,0,0,2,2,0,3,3,0,0,2,0,1,1,1,0,0,2,2,2,0,2,0,0,0,0,0,0,0,0,0,0,0,0,0,0,0,0,0,0,0,0,0,0,0,0,0,0,0,0,0,0,0,0,0,0,0,0,0,0,0,0,0,0,0,0],"split_type":[0,0,0,0,0,0,0,0,0,0,0,0,0,0,0,0,0,0,0,0,0,0,0,0,0,0,0,0,0,0,0,0,0,0,0,0,0,0,0,0,0,0,0,0,0,0,0,0,0,0,0,0,0,0,0,0,0,0,0,0,0,0,0,0,0,0,0,0,0,0,0,0,0,0,0,0,0,0,0,0,0,0,0,0,0,0,0,0,0,0,0,0,0,0,0,0,0,0,0,0,0],"sum_hessian":[1.953E3,1.464E3,4.89E2,1.006E3,4.58E2,4.27E2,6.2E1,1.53E2,8.53E2,1.66E2,2.92E2,3.04E2,1.23E2,5.5E1,7E0,8E0,1.45E2,5.17E2,3.36E2,1.51E2,1.5E1,2.88E2,4E0,2.96E2,8E0,1.16E2,7E0,2.2E1,3.3E1,1E0,6E0,1.18E2,2.7E1,4.2E2,9.7E1,3.3E1,3.03E2,1.37E2,1.4E1,9E0,6E0,2.74E2,1.4E1,3E0,1E0,2.59E2,3.7E1,5E0,3E0,8.3E1,3.3E1,2E0,5E0,7E0,1.5E1,2E0,3.1E1,1.07E2,1.1E1,2.6E1,1E0,4.11E2,9E0,6.1E1,3.6E1,2.6E1,7E0,6.5E1,2.38E2,1.29E2,8E0,5E0,9E0,1E0,8E0,2E0,4E0,2.72E2,2E0,6E0,8E0,2.2E2,3.9E1,3.1E1,6E0,2E0,3E0,1E0,2E0,6.7E1,1.6E1,1.1E1,2.2E1,2E0,3E0,6E0,1E0,4E0,1.1E1,1.8E1,1.3E1],"tree_param":{"num_deleted":"0","num_feature":"4","num_nodes":"101","size_leaf_vector":"1"}},{"base_weights":[7.557901E-3,-1.1135066E-1,3.7803602E-1,-1.7726557E-1,4.3346904E-2,3.2822615E-1,1.0352403E0,-4.4963127E-1,-1.6618259E-1,-1.590128E-2,8.136852E-2,2.2453809E-1,4.5423293E-1,2.8671947E-1,1.396468E0,-2.1048705E-1,-3.6470747E-1,-1.9948342E-1,-1.21471725E-1,-1.0409231E-2,-1.9945069E-1,8.832353E-2,-1.3014051E-1,2.5003752E-1,8.34375E-2,4.8788723E-1,-6.4812295E-2,5.702169E-1,-2.2422028E-1,-2.8736487E-1,1.5541934E0,-6.0684443E-3,-1.1255016E-1,-2.2399214E-1,-1.7209992E-1,-2.6920345E-1,-1.1620799E-1,-1.9373499E-2,2.0109776E-1,-8.0952644E-2,1.2317277E-2,-6.731477E-2,9.871999E-2,-3.325603E-1,2.2338267E-1,2.2850153E-1,6.9844055E-1,-4.7896482E-2,1.2662894E-1,4.1489252E-1,7.300145E-1,-9.06723E-1,4.1011727E-1,9.21527E-1,-2.8334314E-1,-7.3411816E-1,3.604177E-1,2.5701375E0,8.626401E-1,-6.796254E-2,6.012798E-3,3.527695E-2,-5.404056E-2,5.884743E-3,-9.5692396E-2,7.642319E-2,-3.6128335E-2,-3.0416038E-3,-2.958934E-2,8.014269E-2,-2.927542E-2,-3.0205691E-2,9.873734E-3,8.04242E-2,2.4763837E-2,-1.895899E-1,-3.8229182E-2,5.4534156E-2,1.22901894E-1,2.8828412E-1,3.902121E-2,-4.530853E-2,3.323784E-2,1.183567E-1,3.7630922E-1,3.0115438E-1,1.0370938E-1,1.2634736E-1,-4.0319481E-1,7.9144996E-1,-5.944791E-2,-1.1434622E-1,3.6064988E-1,-5.3924564E-3,-3.249607E-1,1.2963639E-1,3.2551575E-2,-2.2152329E-2,8.8751924E-1,-1.1694489E-1,2.9669064E-1],"categories":[],"categories_nodes":[],"categories_segments":[],"categories_sizes":[],"default_left":[0,0,0,0,0,0,0,0,0,0,0,0,0,0,0,0,0,0,0,0,0,0,0,0,0,0,0,0,0,0,0,0,0,0,0,0,0,0,0,0,0,0,0,0,0,0,0,0,0,0,0,0,0,0,0,0,0,0,0,0,0,0,0,0,0,0,0,0,0,0,0,0,0,0,0,0,0,0,0,0,0,0,0,0,0,0,0,0,0,0,0,0,0,0,0,0,0,0,0,0,0],"id":10,"left_children":[1,3,5,7,9,11,13,15,17,19,21,23,25,27,29,-1,31,33,35,37,39,41,43,45,47,49,51,53,55,-1,57,-1,-1,59,61,63,65,67,69,-1,-1,71,73,75,-1,77,79,81,-1,83,85,87,89,91,-1,93,95,97,99,-1,-1,-1,-1,-1,-1,-1,-1,-1,-1,-1,-1,-1,-1,-1,-1,-1,-1,-1,-1,-1,-1,-1,-1,-1,-1,-1,-1,-1,-1,-1,-1,-1,-1,-1,-1,-1,-1,-1,-1,-1,-1],"loss_changes":[8.6121704E1,1.509906E1,1.5209457E1,3.058609E0,9.992452E-1,5.6859818E0,8.522358E0,6.0011864E-1,1.4631863E0,1.733267E-1,4.0867746E-1,8.6064434E-1,3.5077744E0,1.8660555E0,9.658237E0,0E0,1.0771179E-1,3.4466743E-1,3.023162E-1,3.2621682E-1,9.572771E-2,4.3058372E-1,1.8412267E0,1.839364E0,1.7548366E0,3.002159E0,5.56989E0,5.1273804E0,1.7551175E0,0E0,1.2537064E1,0E0,0E0,1.8995667E-1,6.589823E-1,2.0750523E-1,6.8185854E-1,1.19036525E-1,1.6415343E-1,0E0,0E0,6.0173184E-2,6.517186E-1,4.1080457E-1,0E0,1.6099672E0,1.2178164E0,4.9134487E-1,0E0,2.0017529E0,4.072998E0,3.4691725E0,1.2720218E1,3.017294E0,0E0,7.305124E-1,7.301688E-3,8.430862E0,2.6006117E0,0E0,0E0,0E0,0E0,0E0,0E0,0E0,0E0,0E0,0E0,0E0,0E0,0E0,0E0,0E0,0E0,0E0,0E0,0E0,0E0,0E0,0E0,0E0,0E0,0E0,0E0,0E0,0E0,0E0,0E0,0E0,0E0,0E0,0E0,0E0,0E0,0E0,0E0,0E0,0E0,0E0,0E0],"parents":[2147483647,0,0,1,1,2,2,3,3,4,4,5,5,6,6,7,7,8,8,9,9,10,10,11,11,12,12,13,13,14,14,16,16,17,17,18,18,19,19,20,20,21,21,22,22,23,23,24,24,25,25,26,26,27,27,28,28,30,30,33,33,34,34,35,35,36,36,37,37,38,38,41,41,42,42,43,43,45,45,46,46,47,47,49,49,50,50,51,51,52,52,53,53,55,55,56,56,57,57,58,58],"right_children":[2,4,6,8,10,12,14,16,18,20,22,24,26,28,30,-1,32,34,36,38,40,42,44,46,48,50,52,54,56,-1,58,-1,-1,60,62,64,66,68,70,-1,-1,72,74,76,-1,78,80,82,-1,84,86,88,90,92,-1,94,96,98,100,-1,-1,-1,-1,-1,-1,-1,-1,-1,-1,-1,-1,-1,-1,-1,-1,-1,-1,-1,-1,-1,-1,-1,-1,-1,-1,-1,-1,-1,-1,-1,-1,-1,-1,-1,-1,-1,-1,-1,-1,-1,-1],"split_conditions":[2.0552073E1,1.346828E1,3.3671997E1,6.4387617E0,1.7965044E1,2.572687E1,3.411739E1,4.018829E0,1.0829108E1,1.911013E1,2.0476288E1,2.4223083E1,3.4274574E1,3.4281075E1,3.4375404E1,-2.1048705E-1,4.167291E0,9.710577E0,1.01014185E1,1.9019363E1,1.8660517E1,1.7548603E1,2.03935E1,2.4780697E1,2.6098671E1,3.3507294E1,3.381772E1,3.480459E1,3.430253E1,-2.8736487E-1,3.4281075E1,-6.0684443E-3,-1.1255016E-1,1.0222828E1,9.715972E0,1.0267622E1,1.0502103E1,1.8220022E1,1.8514206E1,-8.0952644E-2,1.2317277E-2,1.8107208E1,1.794157E1,2.0298723E1,2.2338267E-1,2.3951859E1,2.450603E1,2.5446068E1,1.2662894E-1,3.501856E1,3.3730175E1,3.2548508E1,3.3979385E1,3.358196E1,-2.8334314E-1,3.3979385E1,3.275391E1,3.358196E1,3.4470932E1,-6.796254E-2,6.012798E-3,3.527695E-2,-5.404056E-2,5.884743E-3,-9.5692396E-2,7.642319E-2,-3.6128335E-2,-3.0416038E-3,-2.958934E-2,8.014269E-2,-2.927542E-2,-3.0205691E-2,9.873734E-3,8.04242E-2,2.4763837E-2,-1.895899E-1,-3.8229182E-2,5.4534156E-2,1.22901894E-1,2.8828412E-1,3.902121E-2,-4.530853E-2,3.323784E-2,1.183567E-1,3.7630922E-1,3.0115438E-1,1.0370938E-1,1.2634736E-1,-4.0319481E-1,7.9144996E-1,-5.944791E-2,-1.1434622E-1,3.6064988E-1,-5.3924564E-3,-3.249607E-1,1.2963639E-1,3.2551575E-2,-2.2152329E-2,8.8751924E-1,-1.1694489E-1,2.9669064E-1],"split_indices":[1,1,1,3,2,2,2,3,0,0,1,2,3,1,3,0,2,0,2,0,1,1,2,0,0,3,0,0,0,0,1,0,0,3,0,1,3,3,1,0,0,3,1,3,0,1,1,1,0,2,2,0,0,0,0,0,2,0,2,0,0,0,0,0,0,0,0,0,0,0,0,0,0,0,0,0,0,0,0,0,0,0,0,0,0,0,0,0,0,0,0,0,0,0,0,0,0,0,0,0,0],"split_type":[0,0,0,0,0,0,0,0,0,0,0,0,0,0,0,0,0,0,0,0,0,0,0,0,0,0,0,0,0,0,0,0,0,0,0,0,0,0,0,0,0,0,0,0,0,0,0,0,0,0,0,0,0,0,0,0,0,0,0,0,0,0,0,0,0,0,0,0,0,0,0,0,0,0,0,0,0,0,0,0,0,0,0,0,0,0,0,0,0,0,0,0,0,0,0,0,0,0,0,0,0],"sum_hessian":[1.953E3,1.479E3,4.74E2,1.037E3,4.42E2,4.42E2,3.2E1,3.9E1,9.98E2,1.73E2,2.69E2,2.44E2,1.98E2,1.1E1,2.1E1,8E0,3.1E1,5.7E2,4.28E2,1.69E2,4E0,2.61E2,8E0,2.06E2,3.8E1,1.86E2,1.2E1,7E0,4E0,1E0,2E1,1E0,3E1,2.97E2,2.73E2,1.3E1,4.15E2,1.63E2,6E0,3E0,1E0,1.6E1,2.45E2,7E0,1E0,1.98E2,8E0,2.8E1,1E1,1.45E2,4.1E1,4E0,8E0,6E0,1E0,2E0,2E0,7E0,1.3E1,2.94E2,3E0,7E0,2.66E2,2E0,1.1E1,4E0,4.11E2,1.47E2,1.6E1,5E0,1E0,1.2E1,4E0,2E1,2.25E2,2E0,5E0,1.59E2,3.9E1,5E0,3E0,1.7E1,1.1E1,1.43E2,2E0,2.3E1,1.8E1,1E0,3E0,1E0,7E0,1E0,5E0,1E0,1E0,1E0,1E0,1E0,6E0,1E0,1.2E1],"tree_param":{"num_deleted":"0","num_feature":"4","num_nodes":"101","size_leaf_vector":"1"}},{"base_weights":[6.3638706E-3,-9.442217E-2,2.3124781E-1,-1.3708259E-1,-1.5034698E-2,1.5823688E-1,4.7261816E-1,-4.3334058E-1,-1.3108088E-1,-5.264906E-3,-2.0595388E-1,9.4583705E-2,2.08306E-1,4.132375E-1,1.2032429E0,-1.3714625E-1,-7.848501E-3,-1.9139709E-1,-1.20107524E-1,-2.1240218E-2,2.045756E-1,-3.8891543E-2,-7.996E-1,1.2558104E-1,-1.4700349E-1,-2.0130014E-1,2.2043462E-1,4.3510428E-1,-3.8980865E-1,1.6124169E0,1.9851723E-1,-1.6839388E-1,-3.5806224E-1,-2.533251E-1,-1.1715715E-1,-5.0846003E-2,1.6641973E-2,-7.152787E-2,2.420566E-1,9.604573E-3,-6.694594E-2,-4.6544054E-1,-2.2376585E-1,1.0070301E-1,3.363269E-1,-5.0173473E-1,3.1783658E-1,-3.0348015E-1,7.709399E-2,4.2204714E-1,1.872069E-1,4.6096507E-1,-7.960841E-1,-3.3320466E-1,2.659218E-1,1.7130576E-1,8.667012E-1,-5.1841855E-2,5.1514722E-2,-1.14742614E-1,-2.4417401E-3,-1.1185407E-1,5.0571445E-2,2.981043E-3,-3.6756285E-2,2.1740997E-2,-1.9350614E-2,1.4753056E-3,3.0985424E-2,4.3814853E-2,1.4634597E-1,-4.531002E-2,2.2721004E-2,-1.1313916E-1,3.544922E-2,3.5108585E-2,-4.970381E-2,1.3908724E-1,-5.026341E-3,-4.0900327E-2,-2.542976E-1,1.4800492E-1,-9.43945E-2,-1.9134236E-2,-9.983998E-2,7.934178E-2,2.2254097E-1,5.4459814E-3,6.998888E-2,1.135065E-1,2.7188307E-1,-1.42032625E-2,-3.4403458E-1],"categories":[],"categories_nodes":[],"categories_segments":[],"categories_sizes":[],"default_left":[0,0,0,0,0,0,0,0,0,0,0,0,0,0,0,0,0,0,0,0,0,0,0,0,0,0,0,0,0,0,0,0,0,0,0,0,0,0,0,0,0,0,0,0,0,0,0,0,0,0,0,0,0,0,0,0,0,0,0,0,0,0,0,0,0,0,0,0,0,0,0,0,0,0,0,0,0,0,0,0,0,0,0,0,0,0,0,0,0,0,0,0,0],"id":11,"left_children":[1,3,5,7,9,11,13,15,17,19,21,23,25,27,29,-1,-1,31,33,35,37,39,41,43,45,47,49,51,53,55,-1,57,59,61,63,65,67,-1,69,71,-1,-1,73,75,77,79,81,83,-1,85,87,89,91,-1,-1,-1,-1,-1,-1,-1,-1,-1,-1,-1,-1,-1,-1,-1,-1,-1,-1,-1,-1,-1,-1,-1,-1,-1,-1,-1,-1,-1,-1,-1,-1,-1,-1,-1,-1,-1,-1,-1,-1],"loss_changes":[4.430956E1,4.5699873E0,1.0586933E1,1.5043278E0,8.811745E-1,1.4654675E0,5.5766697E0,1.5287852E-1,5.4754543E-1,1.516218E0,2.2499485E0,1.5685927E0,1.3360434E0,2.4699726E0,1.1487789E0,0E0,0E0,4.4193697E-1,2.5802803E-1,4.7188964E-1,5.890454E-1,1.7192672E-1,1.8175919E0,9.308319E-1,4.116909E0,4.5260483E-1,1.6158695E0,4.442423E0,4.6644726E0,4.9974966E0,0E0,2.0525098E-1,1.2502778E-1,8.192387E-1,4.9068356E-1,4.0210056E-1,1.8741968E-1,0E0,6.366049E-1,1.8141201E-1,0E0,0E0,2.5432312E-1,7.4129915E-1,8.61747E-1,1.6540449E0,1.3763349E0,2.7969241E-2,0E0,1.5673037E0,1.7021184E0,4.2922993E0,7.33451E-1,0E0,0E0,0E0,0E0,0E0,0E0,0E0,0E0,0E0,0E0,0E0,0E0,0E0,0E0,0E0,0E0,0E0,0E0,0E0,0E0,0E0,0E0,0E0,0E0,0E0,0E0,0E0,0E0,0E0,0E0,0E0,0E0,0E0,0E0,0E0,0E0,0E0,0E0,0E0,0E0],"parents":[2147483647,0,0,1,1,2,2,3,3,4,4,5,5,6,6,7,7,8,8,9,9,10,10,11,11,12,12,13,13,14,14,17,17,18,18,19,19,20,20,21,21,22,22,23,23,24,24,25,25,26,26,27,27,28,28,29,29,31,31,32,32,33,33,34,34,35,35,36,36,38,38,39,39,42,42,43,43,44,44,45,45,46,46,47,47,49,49,50,50,51,51,52,52],"right_children":[2,4,6,8,10,12,14,16,18,20,22,24,26,28,30,-1,-1,32,34,36,38,40,42,44,46,48,50,52,54,56,-1,58,60,62,64,66,68,-1,70,72,-1,-1,74,76,78,80,82,84,-1,86,88,90,92,-1,-1,-1,-1,-1,-1,-1,-1,-1,-1,-1,-1,-1,-1,-1,-1,-1,-1,-1,-1,-1,-1,-1,-1,-1,-1,-1,-1,-1,-1,-1,-1,-1,-1,-1,-1,-1,-1,-1,-1],"split_conditions":[1.8749226E1,1.1838562E1,3.1439129E1,5.18473E0,1.859089E1,2.2955826E1,3.654439E1,6.2788787E0,8.77309E0,1.8400967E1,1.9526909E1,2.2111176E1,2.2911745E1,3.6830746E1,3.4100605E1,-1.3714625E-1,-7.848501E-3,9.025989E0,8.81324E0,1.5992576E1,1.770429E1,1.921711E1,1.9768131E1,2.1925837E1,2.4003824E1,2.3773268E1,2.3437738E1,3.624975E1,3.624975E1,3.347487E1,1.9851723E-1,9.284438E0,9.514678E0,9.225078E0,9.300101E0,1.1955921E1,1.8666555E1,-7.152787E-2,1.8514206E1,1.8660517E1,-6.694594E-2,-4.6544054E-1,2.0595236E1,2.158642E1,2.2711145E1,2.2493124E1,2.3861538E1,2.2397118E1,7.709399E-2,2.3127594E1,2.3888979E1,3.4470932E1,2.9396805E1,-3.3320466E-1,2.659218E-1,1.7130576E-1,8.667012E-1,-5.1841855E-2,5.1514722E-2,-1.14742614E-1,-2.4417401E-3,-1.1185407E-1,5.0571445E-2,2.981043E-3,-3.6756285E-2,2.1740997E-2,-1.9350614E-2,1.4753056E-3,3.0985424E-2,4.3814853E-2,1.4634597E-1,-4.531002E-2,2.2721004E-2,-1.1313916E-1,3.544922E-2,3.5108585E-2,-4.970381E-2,1.3908724E-1,-5.026341E-3,-4.0900327E-2,-2.542976E-1,1.4800492E-1,-9.43945E-2,-1.9134236E-2,-9.983998E-2,7.934178E-2,2.2254097E-1,5.4459814E-3,6.998888E-2,1.135065E-1,2.7188307E-1,-1.42032625E-2,-3.4403458E-1],"split_indices":[1,1,0,0,1,1,2,2,1,1,0,1,3,3,1,0,0,2,2,3,3,0,0,2,3,1,2,0,0,1,0,3,3,3,3,1,3,0,1,1,0,0,3,3,2,2,2,0,0,2,2,2,1,0,0,0,0,0,0,0,0,0,0,0,0,0,0,0,0,0,0,0,0,0,0,0,0,0,0,0,0,0,0,0,0,0,0,0,0,0,0,0,0],"split_type":[0,0,0,0,0,0,0,0,0,0,0,0,0,0,0,0,0,0,0,0,0,0,0,0,0,0,0,0,0,0,0,0,0,0,0,0,0,0,0,0,0,0,0,0,0,0,0,0,0,0,0,0,0,0,0,0,0,0,0,0,0,0,0,0,0,0,0,0,0,0,0,0,0,0,0,0,0,0,0,0,0,0,0,0,0,0,0,0,0,0,0,0,0],"sum_hessian":[1.953E3,1.349E3,6.04E2,8.77E2,4.72E2,4.65E2,1.39E2,1.6E1,8.61E2,4.5E2,2.2E1,2.06E2,2.59E2,1.3E2,9E0,1.5E1,1E0,1.3E2,7.31E2,4.19E2,3.1E1,1.8E1,4E0,1.83E2,2.3E1,7E0,2.52E2,1.27E2,3E0,4E0,5E0,1.16E2,1.4E1,1.4E1,7.17E2,2.35E2,1.84E2,2E0,2.9E1,1.5E1,3E0,1E0,3E0,1.65E2,1.8E1,1.3E1,1E1,6E0,1E0,3.4E1,2.18E2,1.25E2,2E0,2E0,1E0,3E0,1E0,1.15E2,1E0,1.3E1,1E0,1.1E1,3E0,2.9E1,6.88E2,2.3E1,2.12E2,1.63E2,2.1E1,2.2E1,7E0,4E0,1.1E1,2E0,1E0,1.56E2,9E0,1.3E1,5E0,7E0,6E0,8E0,2E0,1E0,5E0,2.4E1,1E1,4.7E1,1.71E2,1.07E2,1.8E1,1E0,1E0],"tree_param":{"num_deleted":"0","num_feature":"4","num_nodes":"93","size_leaf_vector":"1"}},{"base_weights":[4.7481814E-3,-5.992838E-2,1.8275478E-1,-9.4574414E-2,3.9938823E-3,1.671016E-1,9.659222E-1,-1.2662072E-1,-9.127504E-2,7.993116E-3,-2.4545765E-1,1.404382E-1,3.8171005E-1,1.3362923E0,1.4888802E-1,-1.2258843E-1,-7.3777765E-2,-5.014524E-3,7.809854E-2,-4.0199524E-1,1.2754583E-1,1.5036476E-1,-3.7039077E-1,6.743974E-1,1.7248888E-1,4.4253922E-1,7.366957E-1,-1.1873376E-1,-3.1030884E-1,-7.104741E-2,-3.2951117E-1,5.678679E-3,-2.0896499E-1,2.0733334E-1,1.3226779E-2,-5.1434137E-2,-4.599251E-1,1.1918872E-1,2.7170357E-1,1.5866089E-1,-5.4890704E-1,-3.5243273E-2,9.8706794E-1,2.532818E-1,1.0411888E-1,3.2125283E-2,1.5559883E-1,-3.8039118E-2,2.5175573E-2,-1.0321933E-1,-2.1229649E-2,-6.0055524E-2,-1.9987782E-2,-1.3652001E-1,4.473996E-2,3.3100529E-4,1.3785124E-1,-2.290673E-1,-1.0067234E-2,1.3458253E-3,1.0673668E-1,-3.1670153E-1,1.622517E-2,-1.5443873E-1,-3.6066342E-2,-4.552737E-3,3.9580226E-2,1.8838322E-1,4.6758242E-2,-2.3309627E-1,-7.6998375E-2,1.4037867E-1,-1.2921971E-1,6.531138E-1,1.6349778E-1,-3.6115445E-2,9.278756E-2],"categories":[],"categories_nodes":[],"categories_segments":[],"categories_sizes":[],"default_left":[0,0,0,0,0,0,0,0,0,0,0,0,0,0,0,0,0,0,0,0,0,0,0,0,0,0,0,0,0,0,0,0,0,0,0,0,0,0,0,0,0,0,0,0,0,0,0,0,0,0,0,0,0,0,0,0,0,0,0,0,0,0,0,0,0,0,0,0,0,0,0,0,0,0,0,0,0],"id":12,"left_children":[1,3,5,7,9,11,13,-1,15,17,19,21,23,25,-1,27,29,31,33,35,-1,37,39,41,43,45,-1,47,49,51,53,55,57,59,61,-1,63,65,67,-1,69,71,73,-1,75,-1,-1,-1,-1,-1,-1,-1,-1,-1,-1,-1,-1,-1,-1,-1,-1,-1,-1,-1,-1,-1,-1,-1,-1,-1,-1,-1,-1,-1,-1,-1,-1],"loss_changes":[2.250707E1,3.1761904E0,6.225565E0,9.663677E-1,5.057575E-1,2.876154E0,1.0761709E0,0E0,4.9611807E-1,4.5452088E-1,1.0107154E0,2.3730364E0,3.312912E0,3.9154358E0,0E0,2.0122004E-1,3.9134526E-1,9.193386E-1,6.5118545E-1,1.4636517E-2,0E0,1.6661215E0,1.7350936E0,5.138113E0,1.4737105E0,4.66035E-2,0E0,5.40071E-1,2.4167657E-2,3.2296896E-1,4.2844415E-1,8.321295E-1,2.0172515E0,7.813629E-1,2.3717165E0,0E0,3.1309605E-2,6.167979E-1,3.657507E0,0E0,3.33822E-1,1.7935449E0,7.230484E0,0E0,1.5112209E0,0E0,0E0,0E0,0E0,0E0,0E0,0E0,0E0,0E0,0E0,0E0,0E0,0E0,0E0,0E0,0E0,0E0,0E0,0E0,0E0,0E0,0E0,0E0,0E0,0E0,0E0,0E0,0E0,0E0,0E0,0E0,0E0],"parents":[2147483647,0,0,1,1,2,2,3,3,4,4,5,5,6,6,8,8,9,9,10,10,11,11,12,12,13,13,15,15,16,16,17,17,18,18,19,19,21,21,22,22,23,23,24,24,25,25,27,27,28,28,29,29,30,30,31,31,32,32,33,33,34,34,36,36,37,37,38,38,40,40,41,41,42,42,44,44],"right_children":[2,4,6,8,10,12,14,-1,16,18,20,22,24,26,-1,28,30,32,34,36,-1,38,40,42,44,46,-1,48,50,52,54,56,58,60,62,-1,64,66,68,-1,70,72,74,-1,76,-1,-1,-1,-1,-1,-1,-1,-1,-1,-1,-1,-1,-1,-1,-1,-1,-1,-1,-1,-1,-1,-1,-1,-1,-1,-1,-1,-1,-1,-1,-1,-1],"split_conditions":[1.9679615E1,1.25026655E1,3.654439E1,4.6027813E0,1.95767E1,3.358196E1,3.4100605E1,-1.2662072E-1,9.710577E0,1.8749226E1,2.0851793E1,3.335262E1,3.3979385E1,3.347487E1,1.4888802E-1,1.0276642E1,1.251014E1,1.9633888E1,1.8888872E1,1.8216381E1,1.2754583E-1,2.8297218E1,3.067114E1,3.3939274E1,3.362407E1,3.0165356E1,7.366957E-1,9.919854E0,9.17731E0,9.804648E0,1.248111E1,1.9526909E1,1.8646301E1,1.8942684E1,1.8489576E1,-5.1434137E-2,2.1044384E1,2.0220629E1,3.0281956E1,1.5866089E-1,3.3403004E1,3.2815105E1,3.4203625E1,2.532818E-1,3.4100605E1,3.2125283E-2,1.5559883E-1,-3.8039118E-2,2.5175573E-2,-1.0321933E-1,-2.1229649E-2,-6.0055524E-2,-1.9987782E-2,-1.3652001E-1,4.473996E-2,3.3100529E-4,1.3785124E-1,-2.290673E-1,-1.0067234E-2,1.3458253E-3,1.0673668E-1,-3.1670153E-1,1.622517E-2,-1.5443873E-1,-3.6066342E-2,-4.552737E-3,3.9580226E-2,1.8838322E-1,4.6758242E-2,-2.3309627E-1,-7.6998375E-2,1.4037867E-1,-1.2921971E-1,6.531138E-1,1.6349778E-1,-3.6115445E-2,9.278756E-2],"split_indices":[1,3,2,1,1,0,1,0,0,1,2,0,0,1,0,2,0,0,2,0,0,0,1,3,3,1,0,2,0,3,3,0,2,0,3,0,0,3,2,0,2,1,3,0,1,0,0,0,0,0,0,0,0,0,0,0,0,0,0,0,0,0,0,0,0,0,0,0,0,0,0,0,0,0,0,0,0],"split_type":[0,0,0,0,0,0,0,0,0,0,0,0,0,0,0,0,0,0,0,0,0,0,0,0,0,0,0,0,0,0,0,0,0,0,0,0,0,0,0,0,0,0,0,0,0,0,0,0,0,0,0,0,0,0,0,0,0,0,0,0,0,0,0,0,0,0,0,0,0,0,0,0,0,0,0,0,0],"sum_hessian":[1.953E3,1.433E3,5.2E2,9.29E2,5.04E2,5.11E2,9E0,8E0,9.21E2,4.97E2,7E0,4.56E2,5.5E1,4E0,5E0,3.28E2,5.93E2,4.2E2,7.7E1,6E0,1E0,4.48E2,8E0,2.2E1,3.3E1,3E0,1E0,3.23E2,5E0,5.88E2,5E0,4E2,2E1,2.5E1,5.2E1,2E0,4E0,3.58E2,9E1,1E0,7E0,7E0,1.5E1,2E0,3.1E1,1E0,2E0,3.11E2,1.2E1,4E0,1E0,1.8E1,5.7E2,4E0,1E0,3.97E2,3E0,4E0,1.6E1,1.1E1,1.4E1,1E0,5.1E1,3E0,1E0,3.1E1,3.27E2,2.1E1,6.9E1,3E0,4E0,3E0,4E0,3E0,1.2E1,1.5E1,1.6E1],"tree_param":{"num_deleted":"0","num_feature":"4","num_nodes":"77","size_leaf_vector":"1"}},{"base_weights":[4.0844935E-3,-3.4054063E-2,1.6423528E-1,-6.1424017E-2,2.855225E-2,1.4691469E-1,7.83477E-1,-1.5819918E-1,-5.478743E-2,3.6350194E-2,-3.844456E-1,3.9895368E-1,1.3123824E-1,1.1202896E0,3.7222037E-1,-1.1635475E-1,-4.2888314E-1,-6.5524295E-2,-3.0868545E-2,2.9489666E-2,4.8885265E-1,-8.201127E-1,-2.9926619E-2,-2.1777725E-1,6.6016454E-1,-1.10095814E-1,1.5780517E-1,3.5670948E-1,6.2619156E-1,2.5731469E-2,1.2370675E-1,-1.5647301E-1,1.7400259E-1,-1.6106187E-1,-4.7903325E-2,-6.406349E-2,-1.16529755E-1,1.9486655E-1,-4.0265594E-2,3.211398E-2,-3.8710913E-1,7.164815E-1,-1.3153811E-1,-4.8468877E-2,-2.957325E-1,1.5477753E-1,-1.4301711E-1,-3.967085E-1,1.2837154E-1,4.0019608E-1,9.834178E-1,7.787544E-2,-5.272945E-1,-5.301005E-2,1.7951874E-1,2.7306749E-2,1.24479294E-1,-3.4603525E-2,-1.1510443E-1,-4.840279E-4,1.0500659E-1,-1.6694712E-2,-3.2090675E-2,9.484856E-2,1.37199545E-2,2.5866717E-2,-1.4936418E-2,7.513033E-3,6.50911E-2,-1.5099794E-1,-2.320118E-2,3.0649978E-1,-1.214161E-1,-6.546908E-2,9.0776116E-2,-2.4559595E-2,-1.6009913E-1,1.5506376E-1,-9.749279E-2,3.9181125E-1,6.763573E-2,-2.278618E-1,5.511527E-2,-6.084824E-3,-3.3949566E-1,3.8125053E-2,-2.3836948E-1,1.4892061E-1,4.4907674E-2],"categories":[],"categories_nodes":[],"categories_segments":[],"categories_sizes":[],"default_left":[0,0,0,0,0,0,0,0,0,0,0,0,0,0,0,0,0,0,0,0,0,0,0,0,0,0,0,0,0,0,0,0,0,0,0,0,0,0,0,0,0,0,0,0,0,0,0,0,0,0,0,0,0,0,0,0,0,0,0,0,0,0,0,0,0,0,0,0,0,0,0,0,0,0,0,0,0,0,0,0,0,0,0,0,0,0,0,0,0],"id":13,"left_children":[1,3,5,7,9,11,13,15,17,19,21,23,25,27,29,31,33,35,37,39,41,43,45,47,49,51,53,55,-1,-1,-1,57,59,-1,-1,61,-1,63,65,67,69,71,-1,-1,-1,73,-1,75,-1,77,79,81,83,85,87,-1,-1,-1,-1,-1,-1,-1,-1,-1,-1,-1,-1,-1,-1,-1,-1,-1,-1,-1,-1,-1,-1,-1,-1,-1,-1,-1,-1,-1,-1,-1,-1,-1,-1],"loss_changes":[1.1940468E1,2.7074208E0,3.9177303E0,6.971731E-1,1.563052E0,1.3976893E0,9.681697E-1,7.4296045E-1,2.6249552E-1,1.4539682E0,1.3655272E0,3.5268013E0,2.242166E0,2.9474072E0,3.3612132E-2,7.4944174E-1,1.759162E-1,3.100264E-1,6.887655E-1,5.229964E-1,1.7917312E0,2.7712297E-1,5.689377E-1,9.784828E-1,8.669753E-1,2.785811E0,1.4422889E0,2.4106741E-2,0E0,0E0,0E0,4.696977E-1,2.4785931E-1,0E0,0E0,2.4965358E-1,0E0,2.2070014E-1,3.7647635E-1,6.0233724E-1,6.907666E-2,2.4665291E0,0E0,0E0,0E0,3.4170413E-1,0E0,2.1502799E-1,0E0,1.0141268E0,1.1727576E0,2.3553846E0,3.3476272E0,4.107454E0,2.6099253E0,0E0,0E0,0E0,0E0,0E0,0E0,0E0,0E0,0E0,0E0,0E0,0E0,0E0,0E0,0E0,0E0,0E0,0E0,0E0,0E0,0E0,0E0,0E0,0E0,0E0,0E0,0E0,0E0,0E0,0E0,0E0,0E0,0E0,0E0],"parents":[2147483647,0,0,1,1,2,2,3,3,4,4,5,5,6,6,7,7,8,8,9,9,10,10,11,11,12,12,13,13,14,14,15,15,16,16,17,17,18,18,19,19,20,20,21,21,22,22,23,23,24,24,25,25,26,26,27,27,31,31,32,32,35,35,37,37,38,38,39,39,40,40,41,41,45,45,47,47,49,49,50,50,51,51,52,52,53,53,54,54],"right_children":[2,4,6,8,10,12,14,16,18,20,22,24,26,28,30,32,34,36,38,40,42,44,46,48,50,52,54,56,-1,-1,-1,58,60,-1,-1,62,-1,64,66,68,70,72,-1,-1,-1,74,-1,76,-1,78,80,82,84,86,88,-1,-1,-1,-1,-1,-1,-1,-1,-1,-1,-1,-1,-1,-1,-1,-1,-1,-1,-1,-1,-1,-1,-1,-1,-1,-1,-1,-1,-1,-1,-1,-1,-1,-1],"split_conditions":[2.3714548E1,1.5249454E1,3.654439E1,8.223355E0,2.3601942E1,2.41483E1,3.4100605E1,7.1690946E0,1.1713203E1,2.3801989E1,2.3835852E1,2.333182E1,2.435664E1,3.347487E1,3.480459E1,6.4742126E0,8.110971E0,1.251014E1,1.1236081E1,2.41483E1,2.4071009E1,2.3785889E1,2.408058E1,2.4150461E1,2.3836536E1,2.3883526E1,2.417179E1,3.0165356E1,6.2619156E-1,2.5731469E-2,1.2370675E-1,6.486349E0,6.429394E0,-1.6106187E-1,-4.7903325E-2,1.1270472E1,-1.16529755E-1,1.120476E1,1.097382E1,2.3356405E1,2.4227615E1,2.41483E1,-1.3153811E-1,-4.8468877E-2,-2.957325E-1,2.360764E1,-1.4301711E-1,2.2769142E1,1.2837154E-1,2.450603E1,2.4379337E1,2.2351332E1,2.4340904E1,2.4102869E1,2.4013342E1,2.7306749E-2,1.24479294E-1,-3.4603525E-2,-1.1510443E-1,-4.840279E-4,1.0500659E-1,-1.6694712E-2,-3.2090675E-2,9.484856E-2,1.37199545E-2,2.5866717E-2,-1.4936418E-2,7.513033E-3,6.50911E-2,-1.5099794E-1,-2.320118E-2,3.0649978E-1,-1.214161E-1,-6.546908E-2,9.0776116E-2,-2.4559595E-2,-1.6009913E-1,1.5506376E-1,-9.749279E-2,3.9181125E-1,6.763573E-2,-2.278618E-1,5.511527E-2,-6.084824E-3,-3.3949566E-1,3.8125053E-2,-2.3836948E-1,1.4892061E-1,4.4907674E-2],"split_indices":[3,3,2,3,3,0,1,3,3,2,2,1,0,1,0,2,2,0,0,0,2,0,1,2,3,1,3,1,0,0,0,1,0,0,0,3,0,2,1,3,0,0,0,0,0,1,0,0,0,1,3,1,0,3,2,0,0,0,0,0,0,0,0,0,0,0,0,0,0,0,0,0,0,0,0,0,0,0,0,0,0,0,0,0,0,0,0,0,0],"split_type":[0,0,0,0,0,0,0,0,0,0,0,0,0,0,0,0,0,0,0,0,0,0,0,0,0,0,0,0,0,0,0,0,0,0,0,0,0,0,0,0,0,0,0,0,0,0,0,0,0,0,0,0,0,0,0,0,0,0,0,0,0,0,0,0,0,0,0,0,0,0,0,0,0,0,0,0,0,0,0,0,0,0,0,0,0,0,0,0,0],"sum_hessian":[1.953E3,1.578E3,3.75E2,1.098E3,4.8E2,3.66E2,9E0,6.9E1,1.029E3,4.72E2,8E0,2E1,3.46E2,4E0,5E0,6.1E1,8E0,7.09E2,3.2E2,4.66E2,6E0,3E0,5E0,6E0,1.4E1,3.4E1,3.12E2,3E0,1E0,1E0,4E0,5.4E1,7E0,5E0,3E0,7.07E2,2E0,1.2E1,3.08E2,4.64E2,2E0,5E0,1E0,1E0,2E0,4E0,1E0,5E0,1E0,9E0,5E0,2.4E1,1E1,2.9E1,2.83E2,1E0,2E0,4.7E1,7E0,4E0,3E0,5.93E2,1.14E2,6E0,6E0,2.1E1,2.87E2,4.48E2,1.6E1,1E0,1E0,4E0,1E0,1E0,3E0,2E0,3E0,8E0,1E0,3E0,2E0,2E0,2.2E1,6E0,4E0,2.4E1,5E0,2.3E1,2.6E2],"tree_param":{"num_deleted":"0","num_feature":"4","num_nodes":"89","size_leaf_vector":"1"}},{"base_weights":[2.8866373E-3,-1.3119391E-2,2.1037275E-1,-4.223013E-2,3.5646483E-2,1.7588112E-1,6.4117587E-1,-8.362756E-2,-4.03072E-2,3.950916E-2,-3.408146E-1,5.214808E-1,1.3007021E-1,9.397987E-1,2.854608E-1,-5.9943706E-2,-2.5691692E-2,3.436441E-2,5.24086E-1,2.9546738E-2,-4.9486846E-1,1.0632013E0,-2.4951418E-1,-3.7994248E-1,1.6106136E-1,2.8764343E-1,5.3226304E-1,2.1871949E-2,9.401711E-2,-5.4786533E-2,-3.243212E-1,-3.841602E-1,-2.174928E-2,3.797886E-2,-1.503918E-1,7.5098383E-1,-2.8772354E-2,-1.00862505E-2,2.3382284E-2,-1.75274E-1,-2.0603372E-2,1.9546852E-1,1.7182938E0,4.266211E-1,-6.052925E-1,1.4850712E-1,-8.1340647E-1,1.7889574E-1,-3.6073208E-1,2.3210907E-2,9.958344E-2,-8.1737086E-2,-1.5845237E-2,-1.0271949E-1,-2.6955701E-2,-1.3251998E-1,-5.808306E-3,3.6706418E-2,-7.1272347E-3,1.0342145E-2,1.234087E-1,-1.03945404E-1,4.0839195E-2,6.745205E-2,2.4789292E-1,5.933762E-3,-1.8881321E-2,-8.265896E-2,1.8039322E-1,8.707237E-3,6.4000654E-1,1.4475347E-2,1.7750417E-1,-2.190518E-1,-1.5865803E-2,-1.0240936E-1,2.4271832E-1,-3.5215148E-1,4.0183354E-2,6.318805E-2,-1.5506698E-1,-2.8121224E-1,2.0537911E-1],"categories":[],"categories_nodes":[],"categories_segments":[],"categories_sizes":[],"default_left":[0,0,0,0,0,0,0,0,0,0,0,0,0,0,0,0,0,0,0,0,0,0,0,0,0,0,0,0,0,0,0,0,0,0,0,0,0,0,0,0,0,0,0,0,0,0,0,0,0,0,0,0,0,0,0,0,0,0,0,0,0,0,0,0,0,0,0,0,0,0,0,0,0,0,0,0,0,0,0,0,0,0,0],"id":14,"left_children":[1,3,5,7,9,11,13,-1,15,17,19,21,23,25,27,29,31,33,35,37,39,41,43,45,47,49,-1,-1,-1,51,53,55,57,59,61,63,65,-1,-1,-1,-1,67,69,71,73,75,77,79,81,-1,-1,-1,-1,-1,-1,-1,-1,-1,-1,-1,-1,-1,-1,-1,-1,-1,-1,-1,-1,-1,-1,-1,-1,-1,-1,-1,-1,-1,-1,-1,-1,-1,-1],"loss_changes":[6.4920497E0,2.5780985E0,1.967504E0,5.059025E-1,1.0008312E0,2.0061936E0,7.9397106E-1,0E0,3.2248008E-1,1.6597965E0,4.14011E-1,6.5302405E0,1.9104825E0,2.2104888E0,1.27711E-2,6.3804615E-1,9.0883136E-1,4.5112926E-1,8.997041E-1,1.1791273E-2,1.5033567E-1,4.780135E0,1.9421105E0,1.7242439E0,1.0974839E0,1.1579186E-2,0E0,0E0,0E0,1.8834233E-1,7.38132E-3,1.3846576E-1,1.8898141E-1,8.4303445E-1,7.7757233E-1,1.2373686E-2,6.221206E-3,0E0,0E0,0E0,0E0,1.1214343E0,3.4438334E0,1.5881133E-1,3.0630708E-1,1.5705312E0,1.523051E0,2.4932985E0,3.0528464E0,0E0,0E0,0E0,0E0,0E0,0E0,0E0,0E0,0E0,0E0,0E0,0E0,0E0,0E0,0E0,0E0,0E0,0E0,0E0,0E0,0E0,0E0,0E0,0E0,0E0,0E0,0E0,0E0,0E0,0E0,0E0,0E0,0E0,0E0],"parents":[2147483647,0,0,1,1,2,2,3,3,4,4,5,5,6,6,8,8,9,9,10,10,11,11,12,12,13,13,14,14,15,15,16,16,17,17,18,18,19,19,20,20,21,21,22,22,23,23,24,24,25,25,29,29,30,30,31,31,32,32,33,33,34,34,35,35,36,36,41,41,42,42,43,43,44,44,45,45,46,46,47,47,48,48],"right_children":[2,4,6,8,10,12,14,-1,16,18,20,22,24,26,28,30,32,34,36,38,40,42,44,46,48,50,-1,-1,-1,52,54,56,58,60,62,64,66,-1,-1,-1,-1,68,70,72,74,76,78,80,82,-1,-1,-1,-1,-1,-1,-1,-1,-1,-1,-1,-1,-1,-1,-1,-1,-1,-1,-1,-1,-1,-1,-1,-1,-1,-1,-1,-1,-1,-1,-1,-1,-1,-1],"split_conditions":[3.1439129E1,1.6877258E1,3.654439E1,4.6027813E0,3.111373E1,3.0281956E1,3.4100605E1,-8.362756E-2,1.0624553E1,3.0588614E1,3.082074E1,3.2548508E1,3.1210283E1,3.347487E1,3.480459E1,1.1094531E1,1.0202896E1,2.9152315E1,3.2022594E1,3.1723034E1,3.258112E1,3.0165356E1,2.6114222E1,3.139427E1,3.6830746E1,3.0165356E1,5.3226304E-1,2.1871949E-2,9.401711E-2,4.0502357E0,1.2797606E1,1.1131723E1,1.0655603E1,2.9502338E1,3.0163233E1,2.8297218E1,2.8297218E1,-1.00862505E-2,2.3382284E-2,-1.75274E-1,-2.0603372E-2,3.1935696E1,2.572687E1,3.2731674E1,3.3744442E1,3.2237675E1,3.2975124E1,3.559735E1,3.624975E1,2.3210907E-2,9.958344E-2,-8.1737086E-2,-1.5845237E-2,-1.0271949E-1,-2.6955701E-2,-1.3251998E-1,-5.808306E-3,3.6706418E-2,-7.1272347E-3,1.0342145E-2,1.234087E-1,-1.03945404E-1,4.0839195E-2,6.745205E-2,2.4789292E-1,5.933762E-3,-1.8881321E-2,-8.265896E-2,1.8039322E-1,8.707237E-3,6.4000654E-1,1.4475347E-2,1.7750417E-1,-2.190518E-1,-1.5865803E-2,-1.0240936E-1,2.4271832E-1,-3.5215148E-1,4.0183354E-2,6.318805E-2,-1.5506698E-1,-2.8121224E-1,2.0537911E-1],"split_indices":[0,3,2,1,1,2,1,0,2,2,0,0,2,1,0,3,0,2,2,1,3,1,2,3,3,1,0,0,0,0,0,1,2,3,3,0,0,0,0,0,0,0,2,0,0,0,0,1,0,0,0,0,0,0,0,0,0,0,0,0,0,0,0,0,0,0,0,0,0,0,0,0,0,0,0,0,0,0,0,0,0,0,0],"split_type":[0,0,0,0,0,0,0,0,0,0,0,0,0,0,0,0,0,0,0,0,0,0,0,0,0,0,0,0,0,0,0,0,0,0,0,0,0,0,0,0,0,0,0,0,0,0,0,0,0,0,0,0,0,0,0,0,0,0,0,0,0,0,0,0,0,0,0,0,0,0,0,0,0,0,0,0,0,0,0,0,0,0,0],"sum_hessian":[1.953E3,1.814E3,1.39E2,1.136E3,6.78E2,1.3E2,9E0,8E0,1.128E3,6.72E2,6E0,1.4E1,1.16E2,4E0,5E0,4.8E2,6.48E2,6.66E2,6E0,2E0,4E0,8E0,6E0,6E0,1.1E2,3E0,1E0,1E0,4E0,4.72E2,8E0,6E0,6.42E2,6.54E2,1.2E1,4E0,2E0,1E0,1E0,3E0,1E0,4E0,4E0,2E0,4E0,3E0,3E0,1.07E2,3E0,1E0,2E0,3E0,4.69E2,7E0,1E0,5E0,1E0,8E0,6.34E2,6.49E2,5E0,7E0,5E0,1E0,3E0,1E0,1E0,2E0,2E0,1E0,3E0,1E0,1E0,3E0,1E0,2E0,1E0,2E0,1E0,1.03E2,4E0,2E0,1E0],"tree_param":{"num_deleted":"0","num_feature":"4","num_nodes":"83","size_leaf_vector":"1"}},{"base_weights":[2.4843714E-3,-4.028225E-3,3.817185E-1,-2.7815463E-2,4.108045E-2,-1.782515E-1,5.393355E-1,-6.1326887E-2,-2.652267E-2,4.9640622E-2,-2.688924E-1,4.0226936E-1,-8.593397E-1,7.9281545E-1,-2.7550591E-2,-2.8257791E-2,7.6451436E-2,4.238496E-2,6.238885E-1,-7.847786E-1,1.3074233E-1,-1.1803189E-1,3.1916657E-1,-4.0758324E-1,9.577103E-2,3.2880306E-3,1.294943E0,-6.506634E-1,3.924497E-1,-2.6010962E-2,-1.1439274E-1,-1.577599E-1,2.0482567E-1,3.4701582E-2,2.672092E-1,-2.6780954E-1,2.1993217E0,2.3347759E-1,-1.4424279E0,1.2113012E0,-2.4397087E-1,1.6043244E-1,-1.4903505E-1,1.6847396E0,1.9161415E-1,1.3248825E-2,-2.690979E-1,1.7457218E-1,7.145302E-2,-1.0808864E-2,-1.6197687E-3,-1.2047364E-2,-5.7269823E-2,1.0271073E-4,-1.2641335E-1,1.7225161E-1,1.5569219E-2,1.2700877E-2,-3.454867E-1,1.7306852E-1,-3.934044E-2,1.8118802E-1,-1.6888666E-1,1.0530248E0,-6.332989E-2,2.3947488E-1,-2.1912576E-1,-6.144333E-1,-1.0678063E-1,-6.988221E-2,6.1496776E-1,1.3908386E-2,-1.8554293E-1,-1.6665989E-1,8.841649E-2,2.747207E-1,6.674429E-1,-2.2496988E-1,4.524233E-1],"categories":[],"categories_nodes":[],"categories_segments":[],"categories_sizes":[],"default_left":[0,0,0,0,0,0,0,0,0,0,0,0,0,0,0,0,0,0,0,0,0,0,0,0,0,0,0,0,0,0,0,0,0,0,0,0,0,0,0,0,0,0,0,0,0,0,0,0,0,0,0,0,0,0,0,0,0,0,0,0,0,0,0,0,0,0,0,0,0,0,0,0,0,0,0,0,0,0,0],"id":15,"left_children":[1,3,5,7,9,11,13,-1,15,17,19,21,23,25,27,29,31,33,35,37,39,-1,-1,-1,-1,41,43,45,47,49,51,53,55,57,59,61,63,65,67,69,71,-1,73,75,77,-1,-1,-1,-1,-1,-1,-1,-1,-1,-1,-1,-1,-1,-1,-1,-1,-1,-1,-1,-1,-1,-1,-1,-1,-1,-1,-1,-1,-1,-1,-1,-1,-1,-1],"loss_changes":[4.8275247E0,2.0634694E0,3.0087428E0,2.8202897E-1,1.7752192E0,3.5087736E0,3.7578936E0,0E0,2.2567958E-1,2.6693134E0,3.813593E0,3.0508573E0,2.7874348E0,7.1317244E0,2.6107204E0,2.352606E-1,6.6371405E-1,1.0962692E0,1.1827486E1,5.694018E0,4.7494183E0,0E0,0E0,0E0,0E0,7.2736174E-1,4.4079914E0,7.2423875E-1,3.677231E-2,2.4781239E-1,1.6839719E-1,3.3357304E-1,7.609709E-1,5.664217E0,2.6662426E0,1.8837981E0,1.0219434E1,2.7605844E0,2.5613546E0,4.1108885E0,1.0072522E0,0E0,1.4264305E0,1.2851906E0,6.0887804E0,0E0,0E0,0E0,0E0,0E0,0E0,0E0,0E0,0E0,0E0,0E0,0E0,0E0,0E0,0E0,0E0,0E0,0E0,0E0,0E0,0E0,0E0,0E0,0E0,0E0,0E0,0E0,0E0,0E0,0E0,0E0,0E0,0E0,0E0],"parents":[2147483647,0,0,1,1,2,2,3,3,4,4,5,5,6,6,8,8,9,9,10,10,11,11,12,12,13,13,14,14,15,15,16,16,17,17,18,18,19,19,20,20,25,25,26,26,27,27,28,28,29,29,30,30,31,31,32,32,33,33,34,34,35,35,36,36,37,37,38,38,39,39,40,40,42,42,43,43,44,44],"right_children":[2,4,6,8,10,12,14,-1,16,18,20,22,24,26,28,30,32,34,36,38,40,-1,-1,-1,-1,42,44,46,48,50,52,54,56,58,60,62,64,66,68,70,72,-1,74,76,78,-1,-1,-1,-1,-1,-1,-1,-1,-1,-1,-1,-1,-1,-1,-1,-1,-1,-1,-1,-1,-1,-1,-1,-1,-1,-1,-1,-1,-1,-1,-1,-1,-1,-1],"split_conditions":[3.3671997E1,1.8248394E1,3.3604465E1,4.6027813E0,3.4203625E1,3.4100605E1,3.559735E1,-6.1326887E-2,1.8410566E1,3.4105972E1,3.381772E1,3.4274574E1,3.559735E1,3.475979E1,3.6830746E1,1.816998E1,1.7804966E1,3.3604465E1,3.2815105E1,3.2815105E1,3.3979385E1,-1.1803189E-1,3.1916657E-1,-4.0758324E-1,9.577103E-2,3.4203625E1,3.6830746E1,3.411739E1,3.654439E1,1.1702759E1,1.8020712E1,1.7641218E1,1.79016E1,3.3939274E1,3.411739E1,3.2548508E1,3.3744442E1,3.501856E1,3.411739E1,3.290181E1,3.501856E1,1.6043244E-1,3.4281075E1,3.501856E1,3.624975E1,1.3248825E-2,-2.690979E-1,1.7457218E-1,7.145302E-2,-1.0808864E-2,-1.6197687E-3,-1.2047364E-2,-5.7269823E-2,1.0271073E-4,-1.2641335E-1,1.7225161E-1,1.5569219E-2,1.2700877E-2,-3.454867E-1,1.7306852E-1,-3.934044E-2,1.8118802E-1,-1.6888666E-1,1.0530248E0,-6.332989E-2,2.3947488E-1,-2.1912576E-1,-6.144333E-1,-1.0678063E-1,-6.988221E-2,6.1496776E-1,1.3908386E-2,-1.8554293E-1,-1.6665989E-1,8.841649E-2,2.747207E-1,6.674429E-1,-2.2496988E-1,4.524233E-1],"split_indices":[1,1,2,1,3,1,1,0,3,3,0,3,1,3,3,2,1,2,1,1,0,0,0,0,0,3,3,2,2,2,1,1,1,3,2,0,0,2,2,1,2,0,1,2,0,0,0,0,0,0,0,0,0,0,0,0,0,0,0,0,0,0,0,0,0,0,0,0,0,0,0,0,0,0,0,0,0,0,0],"split_type":[0,0,0,0,0,0,0,0,0,0,0,0,0,0,0,0,0,0,0,0,0,0,0,0,0,0,0,0,0,0,0,0,0,0,0,0,0,0,0,0,0,0,0,0,0,0,0,0,0,0,0,0,0,0,0,0,0,0,0,0,0,0,0,0,0,0,0,0,0,0,0,0,0,0,0,0,0,0,0],"sum_hessian":[1.953E3,1.921E3,3.2E1,1.258E3,6.63E2,7E0,2.5E1,8E0,1.25E3,6.46E2,1.7E1,4E0,3E0,1.7E1,8E0,1.23E3,2E1,6.39E2,7E0,7E0,1E1,2E0,2E0,2E0,1E0,7E0,1E1,3E0,5E0,1.2E3,3E1,7E0,1.3E1,6.19E2,2E1,5E0,2E0,3E0,4E0,2E0,8E0,1E0,6E0,7E0,3E0,1E0,2E0,1E0,4E0,8.07E2,3.93E2,1.6E1,1.4E1,5E0,2E0,3E0,1E1,6.16E2,3E0,1.1E1,9E0,1E0,4E0,1E0,1E0,2E0,1E0,2E0,2E0,1E0,1E0,5E0,3E0,3E0,3E0,4E0,3E0,2E0,1E0],"tree_param":{"num_deleted":"0","num_feature":"4","num_nodes":"79","size_leaf_vector":"1"}},{"base_weights":[2.5195868E-3,-2.6148432E-3,3.0148488E-1,-1.3954949E-2,5.5724405E-2,-1.3861203E-1,4.2530376E-1,-1.2661745E-2,-1.5900321E-1,5.278702E-1,4.4777352E-2,3.2181436E-1,-6.79492E-1,6.2451625E-1,-2.0377265E-2,-1.6583305E-2,4.3474033E-1,1.9772378E-1,2.7064726E-1,6.0214147E-2,-2.0641422E-1,-9.4425775E-2,2.5533295E-1,-3.2606697E-1,8.140526E-2,1.2575388E-2,1.01279E0,-5.194273E-1,3.1571898E-1,-1.3825609E-2,-2.1300481E-1,-8.056958E-3,6.8163407E-1,2.6514578E-1,-1.079464E-2,4.5817394E-2,5.619726E-1,-6.369529E-1,1.2546973E-1,3.7344489E-1,-1.6995525E-1,1.2970891E0,1.9099426E-1,1.1261559E-2,-2.1527863E-1,1.4838639E-1,5.430428E-2,-4.550829E-3,1.2318913E-1,-1.6052628E-1,1.5340849E-2,4.6306346E-2,-1.23017125E-1,2.2430994E-1,2.296629E-2,2.0440865E-2,9.243107E-2,1.1447139E-2,1.7117444E-1,-5.5624582E-2,5.608273E-1,5.0556567E-2,-3.4618264E-1,3.0888176E-1,-5.695502E-2,-3.927727E-2,2.0732747E-1,6.594401E-2,-1.8989849E-1,2.0878808E-1,5.172684E-1,-1.7997551E-1,3.8455984E-1],"categories":[],"categories_nodes":[],"categories_segments":[],"categories_sizes":[],"default_left":[0,0,0,0,0,0,0,0,0,0,0,0,0,0,0,0,0,0,0,0,0,0,0,0,0,0,0,0,0,0,0,0,0,0,0,0,0,0,0,0,0,0,0,0,0,0,0,0,0,0,0,0,0,0,0,0,0,0,0,0,0,0,0,0,0,0,0,0,0,0,0,0,0],"id":16,"left_children":[1,3,5,7,9,11,13,15,-1,17,19,21,23,25,27,29,31,33,-1,35,37,-1,-1,-1,-1,39,41,43,45,47,49,51,53,55,-1,57,59,61,63,65,67,69,71,-1,-1,-1,-1,-1,-1,-1,-1,-1,-1,-1,-1,-1,-1,-1,-1,-1,-1,-1,-1,-1,-1,-1,-1,-1,-1,-1,-1,-1,-1],"loss_changes":[3.0002103E0,1.2723212E0,1.8571982E0,1.067747E0,1.5941362E0,2.2109535E0,2.3211422E0,2.8267138E0,0E0,6.8660927E-1,1.2028501E0,1.9525489E0,1.844414E0,4.2640743E0,1.6735526E0,8.604784E-1,1.5360262E0,8.832513E-2,0E0,2.0691233E0,2.651918E0,0E0,0E0,0E0,0E0,5.9042686E-1,2.322257E0,4.6842885E-1,5.5060446E-2,9.034569E-1,1.899018E0,4.5503065E-1,3.0253553E-1,1.2859374E-2,0E0,1.1158402E0,8.164008E0,3.5258384E0,3.331483E0,5.711141E-1,1.2220109E0,8.541298E-1,4.2201524E0,0E0,0E0,0E0,0E0,0E0,0E0,0E0,0E0,0E0,0E0,0E0,0E0,0E0,0E0,0E0,0E0,0E0,0E0,0E0,0E0,0E0,0E0,0E0,0E0,0E0,0E0,0E0,0E0,0E0,0E0],"parents":[2147483647,0,0,1,1,2,2,3,3,4,4,5,5,6,6,7,7,9,9,10,10,11,11,12,12,13,13,14,14,15,15,16,16,17,17,19,19,20,20,25,25,26,26,27,27,28,28,29,29,30,30,31,31,32,32,33,33,35,35,36,36,37,37,38,38,39,39,40,40,41,41,42,42],"right_children":[2,4,6,8,10,12,14,16,-1,18,20,22,24,26,28,30,32,34,-1,36,38,-1,-1,-1,-1,40,42,44,46,48,50,52,54,56,-1,58,60,62,64,66,68,70,72,-1,-1,-1,-1,-1,-1,-1,-1,-1,-1,-1,-1,-1,-1,-1,-1,-1,-1,-1,-1,-1,-1,-1,-1,-1,-1,-1,-1,-1,-1],"split_conditions":[3.3671997E1,2.3951555E1,3.3604465E1,2.450603E1,2.2929483E1,3.4100605E1,3.559735E1,2.3951859E1,-1.5900321E-1,2.4340904E1,3.4203625E1,3.4274574E1,3.559735E1,3.475979E1,3.6830746E1,2.41483E1,2.3801989E1,2.4290947E1,2.7064726E-1,3.4105972E1,3.381772E1,-9.4425775E-2,2.5533295E-1,-3.2606697E-1,8.140526E-2,3.381772E1,3.6830746E1,3.411739E1,3.654439E1,2.3773268E1,2.4340904E1,2.402E1,2.41483E1,1.9815102E1,-1.079464E-2,3.5714584E1,3.2815105E1,3.2815105E1,3.3979385E1,3.358196E1,3.3924732E1,3.501856E1,3.624975E1,1.1261559E-2,-2.1527863E-1,1.4838639E-1,5.430428E-2,-4.550829E-3,1.2318913E-1,-1.6052628E-1,1.5340849E-2,4.6306346E-2,-1.23017125E-1,2.2430994E-1,2.296629E-2,2.0440865E-2,9.243107E-2,1.1447139E-2,1.7117444E-1,-5.5624582E-2,5.608273E-1,5.0556567E-2,-3.4618264E-1,3.0888176E-1,-5.695502E-2,-3.927727E-2,2.0732747E-1,6.594401E-2,-1.8989849E-1,2.0878808E-1,5.172684E-1,-1.7997551E-1,3.8455984E-1],"split_indices":[1,3,2,1,2,1,1,1,0,0,3,3,1,3,3,0,2,0,0,3,0,0,0,0,0,0,3,2,2,1,0,0,0,0,0,2,1,1,0,0,2,2,0,0,0,0,0,0,0,0,0,0,0,0,0,0,0,0,0,0,0,0,0,0,0,0,0,0,0,0,0,0,0],"split_type":[0,0,0,0,0,0,0,0,0,0,0,0,0,0,0,0,0,0,0,0,0,0,0,0,0,0,0,0,0,0,0,0,0,0,0,0,0,0,0,0,0,0,0,0,0,0,0,0,0,0,0,0,0,0,0,0,0,0,0,0,0,0,0,0,0,0,0,0,0,0,0,0,0],"sum_hessian":[1.953E3,1.921E3,3.2E1,1.609E3,3.12E2,7E0,2.5E1,1.606E3,3E0,6E0,3.06E2,4E0,3E0,1.7E1,8E0,1.593E3,1.3E1,4E0,2E0,2.89E2,1.7E1,2E0,2E0,2E0,1E0,7E0,1E1,3E0,5E0,1.572E3,2.1E1,5E0,8E0,3E0,1E0,2.82E2,7E0,7E0,1E1,2E0,5E0,7E0,3E0,1E0,2E0,1E0,4E0,1.568E3,4E0,9E0,1.2E1,4E0,1E0,7E0,1E0,1E0,2E0,2.79E2,3E0,5E0,2E0,3E0,4E0,2E0,8E0,1E0,1E0,3E0,2E0,4E0,3E0,2E0,1E0],"tree_param":{"num_deleted":"0","num_feature":"4","num_nodes":"73","size_leaf_vector":"1"}},{"base_weights":[2.7316902E-3,-4.229789E-3,1.5399069E-1,-1.3105881E-3,-3.9093032E-1,-3.3418946E-2,2.656671E-1,-4.4789137E-3,7.311325E-1,7.9465675E-1,-7.8651375E-1,9.2383194E-1,-1.5993842E-1,-6.882229E-1,3.1559023E-1,-5.4809474E-3,1.3772379E-1,-6.70681E-2,1.2234665E0,-1.3737917E-1,4.0944883E-1,4.4312525E-1,-1.303019E0,3.5377467E-1,2.36372E-2,1.9662857E-1,-4.0857357E-1,1.0560609E-1,-4.153064E-1,1.3111786E0,2.0530832E-1,-2.8936951E-3,-4.8021108E-1,1.316592E-1,-9.94875E-2,4.891408E-1,-6.0681727E-2,3.5341817E-1,-1.9454002E-1,-6.096632E-1,1.7691116E-1,4.2406783E-1,1.4705658E-3,-7.6650524E-1,-1.1111658E-1,5.034279E-1,-2.3471834E-2,7.073041E-2,3.7496895E-1,-1.3496482E-3,1.2521292E-1,-8.718782E-2,-2.4771024E-1,3.7788393E-3,5.54678E-2,1.645775E-2,-1.0400076E-1,1.9936925E-1,-1.1384964E-2,8.244972E-2,-4.0636636E-2,-4.694653E-2,-3.303653E-1,1.926198E-2,-1.3019514E-1,1.226109E-1,-1.2418747E-1,2.425953E-1,3.0110141E-2],"categories":[],"categories_nodes":[],"categories_segments":[],"categories_sizes":[],"default_left":[0,0,0,0,0,0,0,0,0,0,0,0,0,0,0,0,0,0,0,0,0,0,0,0,0,0,0,0,0,0,0,0,0,0,0,0,0,0,0,0,0,0,0,0,0,0,0,0,0,0,0,0,0,0,0,0,0,0,0,0,0,0,0,0,0,0,0,0,0],"id":17,"left_children":[1,3,5,7,9,11,13,15,17,19,21,23,25,27,29,31,-1,33,35,-1,-1,37,39,-1,-1,41,43,-1,-1,45,47,49,51,53,-1,-1,-1,-1,55,-1,-1,57,59,61,63,-1,-1,65,67,-1,-1,-1,-1,-1,-1,-1,-1,-1,-1,-1,-1,-1,-1,-1,-1,-1,-1,-1,-1],"loss_changes":[2.0581868E0,2.1093206E0,1.8087926E0,4.310342E0,7.1909895E0,4.1444154E0,2.78874E0,8.613782E-1,3.225906E0,3.481761E0,7.563666E0,7.7043724E-1,2.73999E0,2.6597595E0,5.4401646E0,2.2659535E0,0E0,2.5396016E-1,3.2311974E0,0E0,0E0,2.1037507E0,1.2239663E1,0E0,0E0,5.76402E-1,1.831275E0,0E0,0E0,2.6802807E0,1.0694416E0,1.2410977E0,4.1502666E-1,1.668549E-2,0E0,0E0,0E0,0E0,1.3284066E-1,0E0,0E0,6.9190145E-1,3.366703E-1,1.4611135E0,6.505318E-1,0E0,0E0,4.7559066E0,2.4197254E0,0E0,0E0,0E0,0E0,0E0,0E0,0E0,0E0,0E0,0E0,0E0,0E0,0E0,0E0,0E0,0E0,0E0,0E0,0E0,0E0],"parents":[2147483647,0,0,1,1,2,2,3,3,4,4,5,5,6,6,7,7,8,8,9,9,10,10,11,11,12,12,13,13,14,14,15,15,17,17,18,18,21,21,22,22,25,25,26,26,29,29,30,30,31,31,32,32,33,33,38,38,41,41,42,42,43,43,44,44,47,47,48,48],"right_children":[2,4,6,8,10,12,14,16,18,20,22,24,26,28,30,32,-1,34,36,-1,-1,38,40,-1,-1,42,44,-1,-1,46,48,50,52,54,-1,-1,-1,-1,56,-1,-1,58,60,62,64,-1,-1,66,68,-1,-1,-1,-1,-1,-1,-1,-1,-1,-1,-1,-1,-1,-1,-1,-1,-1,-1,-1,-1],"split_conditions":[3.3507294E1,3.2815105E1,3.290181E1,3.3151745E1,3.258112E1,3.2476986E1,3.314873E1,3.2498913E1,3.2476986E1,3.2331417E1,3.2476986E1,3.4203625E1,3.383862E1,3.3085777E1,3.335262E1,3.1723034E1,1.3772379E-1,3.159539E1,3.314873E1,-1.3737917E-1,4.0944883E-1,3.2548508E1,3.501856E1,3.5377467E-1,2.36372E-2,3.362407E1,3.3604465E1,1.0560609E-1,-4.153064E-1,3.3730175E1,3.475979E1,3.1381279E1,3.2548508E1,3.2237675E1,-9.94875E-2,4.891408E-1,-6.0681727E-2,3.5341817E-1,3.2731674E1,-6.096632E-1,1.7691116E-1,3.501856E1,3.322591E1,3.314873E1,3.501856E1,5.034279E-1,-2.3471834E-2,3.3924732E1,3.4281075E1,-1.3496482E-3,1.2521292E-1,-8.718782E-2,-2.4771024E-1,3.7788393E-3,5.54678E-2,1.645775E-2,-1.0400076E-1,1.9936925E-1,-1.1384964E-2,8.244972E-2,-4.0636636E-2,-4.694653E-2,-3.303653E-1,1.926198E-2,-1.3019514E-1,1.226109E-1,-1.2418747E-1,2.425953E-1,3.0110141E-2],"split_indices":[3,1,1,3,3,2,0,1,2,0,2,3,3,1,0,1,0,2,0,0,0,0,2,0,0,3,2,0,0,2,3,1,0,0,0,0,0,0,0,0,0,2,2,0,2,0,0,2,1,0,0,0,0,0,0,0,0,0,0,0,0,0,0,0,0,0,0,0,0],"split_type":[0,0,0,0,0,0,0,0,0,0,0,0,0,0,0,0,0,0,0,0,0,0,0,0,0,0,0,0,0,0,0,0,0,0,0,0,0,0,0,0,0,0,0,0,0,0,0,0,0,0,0,0,0,0,0,0,0,0,0,0,0,0,0,0,0,0,0,0,0],"sum_hessian":[1.953E3,1.868E3,8.5E1,1.855E3,1.3E1,3.2E1,5.3E1,1.848E3,7E0,3E0,1E1,3E0,2.9E1,2E0,5.1E1,1.845E3,3E0,3E0,4E0,1E0,2E0,3E0,7E0,2E0,1E0,1.2E1,1.7E1,1E0,1E0,4E0,4.7E1,1.836E3,9E0,2E0,1E0,3E0,1E0,1E0,2E0,5E0,2E0,5E0,7E0,7E0,1E1,3E0,1E0,2.7E1,2E1,1.83E3,6E0,7E0,2E0,1E0,1E0,1E0,1E0,3E0,2E0,2E0,5E0,3E0,4E0,7E0,3E0,1.6E1,1.1E1,7E0,1.3E1],"tree_param":{"num_deleted":"0","num_feature":"4","num_nodes":"69","size_leaf_vector":"1"}},{"base_weights":[2.4141162E-3,-2.2604555E-4,2.8639072E-1,4.1499452E-4,-1.8619195E-1,-2.5444794E-1,3.6989856E-1,-1.0435478E-3,3.5205412E-1,1.6622544E-3,-1.1616383E-1,6.0181123E-1,-1.4247894E-2,6.3147367E-4,-4.03337E-1,-4.302508E-1,6.845309E-1,6.9152725E-1,2.943554E-1,-2.2168352E-1,2.2969246E-1,-3.0467154E-3,1.9902545E-1,3.0026245E-1,-6.879139E-1,-1.7431068E-1,-1.9302178E-2,4.538767E-1,6.4880446E-2,3.292265E-1,2.6428387E-1,1.648651E-1,-7.068443E-2,1.2161179E-1,3.404457E-2,-5.3749105E-4,-1.4260529E-1,7.870705E-2,-1.0721455E-1,2.7033808E-2,1.080843E-1,-9.96377E-2,-2.7989808E-1,1.4152908E-1,-1.4757729E-2],"categories":[],"categories_nodes":[],"categories_segments":[],"categories_sizes":[],"default_left":[0,0,0,0,0,0,0,0,0,0,0,0,0,0,0,0,0,0,0,0,0,0,0,0,0,0,0,0,0,0,0,0,0,0,0,0,0,0,0,0,0,0,0,0,0],"id":18,"left_children":[1,3,5,7,-1,9,11,13,15,-1,-1,17,19,21,23,25,27,29,31,-1,33,35,37,39,41,-1,-1,-1,-1,43,-1,-1,-1,-1,-1,-1,-1,-1,-1,-1,-1,-1,-1,-1,-1],"loss_changes":[1.4650648E0,7.7062196E-1,9.070766E-1,9.93304E-1,0E0,1.0569756E-1,1.4339895E0,1.3001115E0,2.3753054E0,0E0,0E0,7.2282314E-2,1.4072101E0,1.4031485E0,1.80838E0,1.2813693E-1,2.000232E0,1.9035554E-1,6.704651E-1,0E0,7.6492906E-2,1.1183149E0,1.3270928E0,5.3727627E-3,2.1330738E-1,0E0,0E0,0E0,0E0,2.3896214E-1,0E0,0E0,0E0,0E0,0E0,0E0,0E0,0E0,0E0,0E0,0E0,0E0,0E0,0E0,0E0],"parents":[2147483647,0,0,1,1,2,2,3,3,5,5,6,6,7,7,8,8,11,11,12,12,13,13,14,14,15,15,16,16,17,17,18,18,20,20,21,21,22,22,23,23,24,24,29,29],"right_children":[2,4,6,8,-1,10,12,14,16,-1,-1,18,20,22,24,26,28,30,32,-1,34,36,38,40,42,-1,-1,-1,-1,44,-1,-1,-1,-1,-1,-1,-1,-1,-1,-1,-1,-1,-1,-1,-1],"split_conditions":[3.5714584E1,3.6830746E1,3.111373E1,3.5210712E1,-1.8619195E-1,3.335262E1,3.559735E1,3.430253E1,3.2815105E1,1.6622544E-3,-1.1616383E-1,3.4281075E1,3.6830746E1,3.358196E1,3.4203625E1,3.381772E1,3.4281075E1,3.358196E1,3.480459E1,-2.2168352E-1,3.654439E1,3.411739E1,3.4281075E1,3.347487E1,3.4470932E1,-1.7431068E-1,-1.9302178E-2,4.538767E-1,6.4880446E-2,3.335262E1,2.6428387E-1,1.648651E-1,-7.068443E-2,1.2161179E-1,3.404457E-2,-5.3749105E-4,-1.4260529E-1,7.870705E-2,-1.0721455E-1,2.7033808E-2,1.080843E-1,-9.96377E-2,-2.7989808E-1,1.4152908E-1,-1.4757729E-2],"split_indices":[2,3,1,3,0,0,1,0,1,0,0,1,3,0,3,0,1,0,0,0,2,2,1,1,2,0,0,0,0,0,0,0,0,0,0,0,0,0,0,0,0,0,0,0,0],"split_type":[0,0,0,0,0,0,0,0,0,0,0,0,0,0,0,0,0,0,0,0,0,0,0,0,0,0,0,0,0,0,0,0,0,0,0,0,0,0,0,0,0,0,0,0,0],"sum_hessian":[1.953E3,1.936E3,1.7E1,1.935E3,1E0,2E0,1.5E1,1.928E3,7E0,1E0,1E0,9E0,6E0,1.921E3,7E0,2E0,5E0,6E0,3E0,1E0,5E0,1.887E3,3.4E1,2E0,5E0,1E0,1E0,1E0,4E0,3E0,3E0,2E0,1E0,1E0,4E0,1.883E3,4E0,3.1E1,3E0,1E0,1E0,3E0,2E0,2E0,1E0],"tree_param":{"num_deleted":"0","num_feature":"4","num_nodes":"45","size_leaf_vector":"1"}},{"base_weights":[1.7043276E-3,-6.168768E-3,6.0455464E-2,-4.1836486E-3,-1.9408152E-1,3.8706982E-1,4.9498897E-2,-7.1448777E-3,2.5927424E-1,-2.7574503E-1,-4.6001077E-2,3.507754E-2,2.1740171E-1,-5.116137E-3,-2.3321126E-1,-1.1644663E-1,4.416413E-1,1.3677576E-1,-2.4587488E-1,4.021983E-2,-1.582632E-1,-2.1628062E-1,2.8512955E-1,-6.79476E-3,3.455162E-1,1.2691794E-1,-6.629186E-1,2.0556116E-1,-1.2280283E-1,7.344348E-1,1.6684103E-1,-2.4066162E-1,4.8685798E-1,-1.6496831E-1,4.6515655E-2,3.6662406E-1,3.218021E-2,1.4127732E-3,-9.873906E-2,4.697922E-1,-1.9407E-2,-2.4127385E-3,1.2293976E-1,2.1047871E-1,-5.5788662E-2,7.7645876E-2,-6.694756E-2,-3.1041756E-1,-3.761473E-2,-7.532692E-3,1.3463575E-1,8.080311E-2,2.6989332E-1,-5.696154E-2,7.3477365E-2,1.0198975E-2,-9.53476E-2,3.3318903E-2,2.101101E-1,-7.6551437E-3,3.0912971E-2,3.414631E-2,1.4916573E-1,5.6488593E-3,6.929759E-2,4.5480732E-2,1.591168E-1,-1.8843098E-1,5.601788E-2],"categories":[],"categories_nodes":[],"categories_segments":[],"categories_sizes":[],"default_left":[0,0,0,0,0,0,0,0,0,0,0,0,0,0,0,0,0,0,0,0,0,0,0,0,0,0,0,0,0,0,0,0,0,0,0,0,0,0,0,0,0,0,0,0,0,0,0,0,0,0,0,0,0,0,0,0,0,0,0,0,0,0,0,0,0,0,0,0,0],"id":19,"left_children":[1,3,5,7,9,-1,11,13,15,-1,17,19,21,23,25,27,29,31,33,35,-1,37,39,41,43,45,47,49,-1,51,53,55,57,-1,59,61,63,-1,-1,65,67,-1,-1,-1,-1,-1,-1,-1,-1,-1,-1,-1,-1,-1,-1,-1,-1,-1,-1,-1,-1,-1,-1,-1,-1,-1,-1,-1,-1],"loss_changes":[9.0420204E-1,6.4229035E-1,3.0486596E0,1.3335843E0,1.8903506E0,0E0,5.492931E-1,7.734331E-1,1.3532907E0,0E0,6.1814654E-1,6.3746154E-1,5.903705E-1,9.882182E-1,2.4053888E0,7.443488E-1,9.234426E-1,1.3063751E0,7.3671794E-1,5.4452515E-1,0E0,7.63658E-2,9.089017E-1,8.7029684E-1,1.6444588E0,4.7333872E-1,1.26928E0,2.3568718E-1,0E0,2.1871161E-1,2.693314E-1,1.1677319E-1,3.2339323E-1,0E0,2.298857E-2,1.08480096E-1,5.47739E-1,0E0,0E0,1.1240554E-1,9.955911E-1,0E0,0E0,0E0,0E0,0E0,0E0,0E0,0E0,0E0,0E0,0E0,0E0,0E0,0E0,0E0,0E0,0E0,0E0,0E0,0E0,0E0,0E0,0E0,0E0,0E0,0E0,0E0,0E0],"parents":[2147483647,0,0,1,1,2,2,3,3,4,4,6,6,7,7,8,8,10,10,11,11,12,12,13,13,14,14,15,15,16,16,17,17,18,18,19,19,21,21,22,22,23,23,24,24,25,25,26,26,27,27,29,29,30,30,31,31,32,32,34,34,35,35,36,36,39,39,40,40],"right_children":[2,4,6,8,10,-1,12,14,16,-1,18,20,22,24,26,28,30,32,34,36,-1,38,40,42,44,46,48,50,-1,52,54,56,58,-1,60,62,64,-1,-1,66,68,-1,-1,-1,-1,-1,-1,-1,-1,-1,-1,-1,-1,-1,-1,-1,-1,-1,-1,-1,-1,-1,-1,-1,-1,-1,-1,-1,-1],"split_conditions":[2.572687E1,2.5175812E1,2.5509907E1,2.4272837E1,2.5446068E1,3.8706982E-1,3.5714584E1,2.408058E1,2.3780909E1,-2.7574503E-1,2.6022E1,3.6830746E1,3.111373E1,2.4033857E1,2.4245136E1,2.450603E1,2.4379337E1,2.5926521E1,2.5947716E1,2.4272837E1,-1.582632E-1,3.335262E1,3.559735E1,2.5655586E1,2.4102869E1,2.4460587E1,2.4460587E1,2.407545E1,-1.2280283E-1,2.417179E1,2.3758265E1,2.5655586E1,2.5172514E1,-1.6496831E-1,2.6122723E1,2.5655586E1,3.475979E1,1.4127732E-3,-9.873906E-2,3.347487E1,3.6830746E1,-2.4127385E-3,1.2293976E-1,2.1047871E-1,-5.5788662E-2,7.7645876E-2,-6.694756E-2,-3.1041756E-1,-3.761473E-2,-7.532692E-3,1.3463575E-1,8.080311E-2,2.6989332E-1,-5.696154E-2,7.3477365E-2,1.0198975E-2,-9.53476E-2,3.3318903E-2,2.101101E-1,-7.6551437E-3,3.0912971E-2,3.414631E-2,1.4916573E-1,5.6488593E-3,6.929759E-2,4.5480732E-2,1.591168E-1,-1.8843098E-1,5.601788E-2],"split_indices":[2,1,3,1,1,0,2,1,3,0,0,3,1,1,3,1,3,0,1,1,0,0,1,0,3,0,0,0,0,3,2,0,2,0,1,0,3,0,0,1,3,0,0,0,0,0,0,0,0,0,0,0,0,0,0,0,0,0,0,0,0,0,0,0,0,0,0,0,0],"split_type":[0,0,0,0,0,0,0,0,0,0,0,0,0,0,0,0,0,0,0,0,0,0,0,0,0,0,0,0,0,0,0,0,0,0,0,0,0,0,0,0,0,0,0,0,0,0,0,0,0,0,0,0,0,0,0,0,0,0,0,0,0,0,0,0,0,0,0,0,0],"sum_hessian":[1.953E3,1.723E3,2.3E2,1.706E3,1.7E1,1E0,2.29E2,1.688E3,1.8E1,2E0,1.5E1,2.12E2,1.7E1,1.674E3,1.4E1,6E0,1.2E1,8E0,7E0,2.11E2,1E0,2E0,1.5E1,1.667E3,7E0,8E0,6E0,3E0,3E0,5E0,7E0,4E0,4E0,3E0,4E0,4E0,2.07E2,1E0,1E0,9E0,6E0,1.663E3,4E0,4E0,3E0,6E0,2E0,3E0,3E0,2E0,1E0,2E0,3E0,1E0,6E0,1E0,3E0,2E0,2E0,2E0,2E0,2E0,2E0,1.95E2,1.2E1,2E0,7E0,1E0,5E0],"tree_param":{"num_deleted":"0","num_feature":"4","num_nodes":"69","size_leaf_vector":"1"}},{"base_weights":[1.4550975E-3,-1.5253097E-2,1.9201612E-2,-4.765747E-2,-1.39440885E-2,1.7130274E-2,2.1178016E-1,-1.3082239E-2,-2.2505856E-1,2.096214E-2,-8.548153E-2,3.77005E-1,1.1638833E-2,-2.7495787E-2,-5.9637665E-3,-1.3184996E-1,-7.078171E-3,1.4674063E-2,2.7296153E-1,4.5826468E-1,-1.3378644E-1,9.2962265E-2,2.2697641E-1,-1.861215E-2,-1.0402699E-1,2.1718638E-2,-2.1842692E-2,1.6778184E-2,-1.9963361E-2,1.867631E-2,-2.1870142E-1,7.1035767E-1,2.1486156E-2,1.8408795E-1,2.2131158E-2,-2.3902893E-1,8.8860944E-2,1.2010575E-3,3.6384203E-2,-7.4022175E-3,1.290227E-1,-4.540441E-2,2.0605482E-2,4.08557E-3,6.296954E-2,-3.71829E-2,-3.2738813E-3,4.4364966E-3,1.7301902E-1,2.0930901E-1,-1.2400642E-1,-3.7929534E-3,5.7587206E-1,-8.859933E-2,2.1425606E-1,-5.5143252E-2,-2.0979138E-1,-1.0755005E-1,6.843236E-2],"categories":[],"categories_nodes":[],"categories_segments":[],"categories_sizes":[],"default_left":[0,0,0,0,0,0,0,0,0,0,0,0,0,0,0,0,0,0,0,0,0,0,0,0,0,0,0,0,0,0,0,0,0,0,0,0,0,0,0,0,0,0,0,0,0,0,0,0,0,0,0,0,0,0,0,0,0,0,0],"id":20,"left_children":[1,3,5,-1,7,9,11,13,15,17,19,21,-1,23,25,-1,27,29,31,33,35,37,-1,39,41,43,45,-1,-1,47,49,51,53,-1,-1,55,57,-1,-1,-1,-1,-1,-1,-1,-1,-1,-1,-1,-1,-1,-1,-1,-1,-1,-1,-1,-1,-1,-1],"loss_changes":[5.7967776E-1,1.8708102E-1,3.74525E-1,0E0,1.7882267E-1,3.7100172E-1,2.7118632E-1,1.0202804E-1,1.8386512E-1,1.4316345E0,9.5434034E-1,4.6875477E-1,0E0,2.2174288E-1,2.9410505E-1,0E0,1.4961769E-2,8.3069825E-1,2.404613E0,1.3393956E-1,7.7106327E-1,9.591129E-3,0E0,8.1570333E-1,2.8827426E-1,3.690634E-1,4.729182E-1,0E0,0E0,1.8812863E0,2.9640949E0,7.018382E0,3.5028145E0,0E0,0E0,4.3060243E-1,7.6700693E-1,0E0,0E0,0E0,0E0,0E0,0E0,0E0,0E0,0E0,0E0,0E0,0E0,0E0,0E0,0E0,0E0,0E0,0E0,0E0,0E0,0E0,0E0],"parents":[2147483647,0,0,1,1,2,2,4,4,5,5,6,6,7,7,8,8,9,9,10,10,11,11,13,13,14,14,16,16,17,17,18,18,19,19,20,20,21,21,23,23,24,24,25,25,26,26,29,29,30,30,31,31,32,32,35,35,36,36],"right_children":[2,4,6,-1,8,10,12,14,16,18,20,22,-1,24,26,-1,28,30,32,34,36,38,-1,40,42,44,46,-1,-1,48,50,52,54,-1,-1,56,58,-1,-1,-1,-1,-1,-1,-1,-1,-1,-1,-1,-1,-1,-1,-1,-1,-1,-1,-1,-1,-1,-1],"split_conditions":[1.3694279E1,4.0502357E0,3.654439E1,-4.765747E-2,1.3851394E1,3.3979385E1,3.4100605E1,9.710577E0,1.3952303E1,3.4105972E1,3.362407E1,3.347487E1,1.1638833E-2,9.679743E0,1.0371046E1,-1.3184996E-1,1.5142229E1,3.383862E1,3.3604465E1,3.430253E1,3.5210712E1,3.0165356E1,2.2697641E-1,9.652819E0,1.0029748E1,1.1606409E1,1.0648456E1,1.6778184E-2,-1.9963361E-2,3.362407E1,3.2022594E1,3.290181E1,3.381772E1,1.8408795E-1,2.2131158E-2,3.480459E1,3.4100605E1,1.2010575E-3,3.6384203E-2,-7.4022175E-3,1.290227E-1,-4.540441E-2,2.0605482E-2,4.08557E-3,6.296954E-2,-3.71829E-2,-3.2738813E-3,4.4364966E-3,1.7301902E-1,2.0930901E-1,-1.2400642E-1,-3.7929534E-3,5.7587206E-1,-8.859933E-2,2.1425606E-1,-5.5143252E-2,-2.0979138E-1,-1.0755005E-1,6.843236E-2],"split_indices":[2,0,2,0,0,0,1,0,0,3,3,1,0,1,1,0,0,3,2,0,3,1,0,1,3,3,0,0,0,3,2,1,0,0,0,0,1,0,0,0,0,0,0,0,0,0,0,0,0,0,0,0,0,0,0,0,0,0,0],"split_type":[0,0,0,0,0,0,0,0,0,0,0,0,0,0,0,0,0,0,0,0,0,0,0,0,0,0,0,0,0,0,0,0,0,0,0,0,0,0,0,0,0,0,0,0,0,0,0,0,0,0,0,0,0,0,0,0,0,0,0],"sum_hessian":[1.953E3,1.006E3,9.47E2,8E0,9.98E2,9.38E2,9E0,9.95E2,3E0,9.05E2,3.3E1,4E0,5E0,3.28E2,6.67E2,1E0,2E0,8.84E2,2.1E1,2E0,3.1E1,3E0,1E0,2.95E2,3.3E1,2.43E2,4.24E2,1E0,1E0,8.7E2,1.4E1,7E0,1.4E1,1E0,1E0,2.1E1,1E1,1E0,2E0,2.92E2,3E0,2.6E1,7E0,2.34E2,9E0,4E1,3.84E2,8.65E2,5E0,2E0,1.2E1,5E0,2E0,1E1,4E0,2E1,1E0,2E0,8E0],"tree_param":{"num_deleted":"0","num_feature":"4","num_nodes":"59","size_leaf_vector":"1"}},{"base_weights":[1.571121E-3,-3.471651E-3,4.2162832E-2,-4.2872545E-3,2.1210709E-1,3.2834387E-1,3.2177735E-2,-1.0431068E-3,-1.8895264E-1,1.7141002E-1,1.5418561E-2,-3.2708575E-3,2.2087602E-1,-8.309547E-2,-5.2489823E-1,-9.327528E-2,3.1879386E-1,-2.8227025E-1,3.322817E-2,-3.9751707E-3,3.9481735E-1,-8.470126E-2,3.9525464E-1,-1.8445367E-1,2.5172138E-1,-7.302208E-1,1.0605555E-1,-1.7819023E-1,8.790665E-2,7.2947025E-2,3.7417665E-1,-1.10336624E-1,-1.2214766E-1,-2.845707E-1,4.0105768E-2,-6.9299614E-4,-5.6963313E-2,3.3910275E-2,1.4375754E-1,5.1702265E-2,-9.617043E-2,1.9974147E-1,6.317182E-2,-2.9270269E-2,-2.6226056E-1,1.4557743E-2,8.47966E-2,-2.798567E-2,-2.5168523E-1,-7.281094E-2,3.069687E-3,3.0518916E-2,-2.0101548E-3,1.5614538E-1,7.078865E-2,-8.1989765E-2,4.3117713E-2,-1.1701012E-2,-1.0602761E-1,1.401518E-1,9.8048095E-3],"categories":[],"categories_nodes":[],"categories_segments":[],"categories_sizes":[],"default_left":[0,0,0,0,0,0,0,0,0,0,0,0,0,0,0,0,0,0,0,0,0,0,0,0,0,0,0,0,0,0,0,0,0,0,0,0,0,0,0,0,0,0,0,0,0,0,0,0,0,0,0,0,0,0,0,0,0,0,0,0,0],"id":21,"left_children":[1,3,5,7,-1,-1,9,11,13,15,17,19,21,23,25,27,29,31,33,35,37,39,41,43,45,47,-1,49,-1,51,53,55,-1,57,59,-1,-1,-1,-1,-1,-1,-1,-1,-1,-1,-1,-1,-1,-1,-1,-1,-1,-1,-1,-1,-1,-1,-1,-1,-1,-1],"loss_changes":[4.0011993E-1,1.0107511E0,2.2343993E0,1.0410072E0,0E0,0E0,4.9904191E-1,8.456188E-1,1.0232509E0,9.2697334E-1,1.0326116E0,4.762508E-1,9.3934315E-1,8.6090523E-1,1.5206578E0,3.4743553E-1,1.769402E-1,1.9127351E-1,4.1139457E-1,5.230305E-1,1.7160803E-2,4.7964096E-1,4.0942264E-1,1.0533673E0,2.3997784E-2,3.3726168E-1,0E0,9.972885E-2,0E0,9.851523E-3,1.19847775E-1,2.876961E-1,0E0,5.384901E-2,5.5535793E-1,0E0,0E0,0E0,0E0,0E0,0E0,0E0,0E0,0E0,0E0,0E0,0E0,0E0,0E0,0E0,0E0,0E0,0E0,0E0,0E0,0E0,0E0,0E0,0E0,0E0,0E0],"parents":[2147483647,0,0,1,1,2,2,3,3,6,6,7,